1186 200
</s> 0.002001 0.002210 -0.001915 -0.001639 0.000683 0.001511 0.000470 0.000106 -0.001802 0.001109 -0.002178 0.000625 -0.000376 -0.000479 -0.001658 -0.000941 0.001290 0.001513 0.001485 0.000799 0.000772 -0.001901 -0.002048 0.002485 0.001901 0.001545 -0.000302 0.002008 -0.000247 0.000367 -0.000075 -0.001492 0.000656 -0.000669 -0.001913 0.002377 0.002190 -0.000548 -0.000113 0.000255 -0.001819 -0.002004 0.002277 0.000032 -0.001291 -0.001521 -0.001538 0.000848 0.000101 0.000666 -0.002107 -0.001904 -0.000065 0.000572 0.001275 -0.001585 0.002040 0.000463 0.000560 -0.000304 0.001493 -0.001144 -0.001049 0.001079 -0.000377 0.000515 0.000902 -0.002044 -0.000992 0.001457 0.002116 0.001966 -0.001523 -0.001054 -0.000455 0.001001 -0.001894 0.001499 0.001394 -0.000799 -0.000776 -0.001119 0.002114 0.001956 -0.000590 0.002107 0.002410 0.000908 0.002491 -0.001556 -0.000766 -0.001054 -0.001454 0.001407 0.000790 0.000212 -0.001097 0.000762 0.001530 0.000097 0.001140 -0.002476 0.002157 0.000240 -0.000916 -0.001042 -0.000374 -0.001468 -0.002185 -0.001419 0.002139 -0.000885 -0.001340 0.001159 -0.000852 0.002378 -0.000802 -0.002294 0.001358 -0.000037 -0.001744 0.000488 0.000721 -0.000241 0.000912 -0.001979 0.000441 0.000908 -0.001505 0.000071 -0.000030 -0.001200 -0.001416 -0.002347 0.000011 0.000076 0.000005 -0.001967 -0.002481 -0.002373 -0.002163 -0.000274 0.000696 0.000592 -0.001591 0.002499 -0.001006 -0.000637 -0.000702 0.002366 -0.001882 0.000581 -0.000668 0.001594 0.000020 0.002135 -0.001410 -0.001303 -0.002096 -0.001833 -0.001600 -0.001557 0.001222 -0.000933 0.001340 0.001845 0.000678 0.001475 0.001238 0.001170 -0.001775 -0.001717 -0.001828 -0.000066 0.002065 -0.001368 -0.001530 -0.002098 0.001653 -0.002089 -0.000290 0.001089 -0.002309 -0.002239 0.000721 0.001762 0.002132 0.001073 0.001581 -0.001564 -0.001820 0.001987 -0.001382 0.000877 0.000287 0.000895 -0.000591 0.000099 -0.000843 -0.000563 
, 0.030984 -0.470721 0.680480 0.052286 0.085965 -0.440662 -0.125961 -0.024040 0.032303 0.134898 -0.182315 0.247935 -0.281064 -0.026567 -0.134909 -0.077361 -0.053513 0.522672 0.222399 -0.144298 -0.114991 0.087320 0.365532 0.021605 0.079181 0.036923 -0.229107 0.356992 0.094080 0.085231 -0.095673 -0.534804 -0.361684 0.473933 0.280354 0.085603 -0.084855 -0.166455 0.028057 0.076249 -0.098520 0.206151 0.020614 -0.349789 0.340571 0.055066 -0.147880 -0.316632 0.395491 -0.623360 0.279059 0.155251 0.070450 0.036805 -0.255141 -0.401578 -0.049781 -0.055869 -0.094172 -0.327477 -0.002958 0.124601 0.150722 0.203420 -0.139953 0.069184 0.416847 -0.137388 -0.252242 -0.313388 0.006619 0.149524 -0.176048 -0.384509 -0.176743 -0.293963 -0.466802 0.288902 0.222512 0.143645 0.087234 0.253457 0.165967 0.089350 -0.338110 0.137014 0.077246 -0.113906 0.260000 -0.166466 0.249063 -0.031958 0.210927 0.156498 -0.011915 -0.202097 0.047408 -0.015456 0.043508 -0.181364 0.525888 -0.193372 -0.238517 0.158127 0.061018 0.435491 -0.139856 -0.209497 -0.058680 0.338416 0.097993 0.184823 -0.137784 -0.326518 0.088886 0.189687 -0.022100 0.014226 0.137869 -0.124572 -0.168361 -0.080338 -0.037728 0.061767 0.047386 0.095719 0.175112 -0.033726 0.238130 0.141824 0.399822 0.701484 -0.494020 -0.095678 -0.058927 0.428937 0.111050 -0.418690 0.144367 -0.355747 -0.208755 0.269960 -0.001237 0.485721 -0.184657 0.343689 0.317006 0.355390 -0.940156 0.045121 -0.451370 0.301622 -0.136084 0.068337 0.003522 0.101568 0.113171 0.140579 -0.407830 0.016402 0.096197 -0.190334 -0.038830 -0.348634 -0.121730 -0.058031 -0.094603 -0.166430 0.249719 0.549525 -0.274279 0.250360 0.411452 0.111905 -0.149620 0.086312 0.283360 0.334162 -0.313046 -0.416670 0.086146 -0.079562 0.097485 -0.012510 0.539451 -0.321507 0.148142 0.126640 0.211167 -0.047867 -0.241760 0.180623 -0.313046 0.184553 0.479622 0.137657 -0.385871 -0.077310 -0.000687 -0.132591 
of 0.026299 -0.394964 0.568298 0.044564 0.076249 -0.367307 -0.109388 -0.016084 0.029103 0.111040 -0.153838 0.211686 -0.233994 -0.019829 -0.114519 -0.064076 -0.047916 0.439246 0.187173 -0.120510 -0.095725 0.073300 0.308935 0.014147 0.068648 0.026061 -0.193453 0.299327 0.083393 0.066992 -0.082572 -0.444600 -0.302326 0.399237 0.234936 0.068191 -0.073344 -0.134304 0.026943 0.065684 -0.085389 0.169627 0.016552 -0.294075 0.285446 0.042903 -0.122289 -0.266980 0.333872 -0.519569 0.233826 0.132607 0.061862 0.033418 -0.215733 -0.336219 -0.040410 -0.043085 -0.078221 -0.274260 -0.004278 0.102774 0.127485 0.172174 -0.120459 0.057022 0.350201 -0.116218 -0.209452 -0.258963 0.007306 0.119207 -0.144473 -0.318643 -0.153102 -0.243637 -0.391203 0.239090 0.189841 0.120978 0.071978 0.210717 0.138251 0.070917 -0.284305 0.114587 0.066769 -0.093057 0.218810 -0.135562 0.209728 -0.028313 0.175384 0.133053 -0.010264 -0.166177 0.042603 -0.011020 0.033523 -0.154044 0.443350 -0.160312 -0.200738 0.132082 0.050557 0.364505 -0.119230 -0.172654 -0.049149 0.282400 0.082470 0.154098 -0.114809 -0.274193 0.076199 0.156740 -0.017585 0.014188 0.111459 -0.100968 -0.135824 -0.069532 -0.027894 0.050599 0.042389 0.080420 0.142627 -0.029452 0.196631 0.121565 0.337282 0.587384 -0.413102 -0.081593 -0.052853 0.357575 0.095966 -0.349302 0.119948 -0.299885 -0.177225 0.222796 0.002540 0.406527 -0.154752 0.289718 0.266582 0.298498 -0.790797 0.039918 -0.382074 0.253226 -0.114324 0.058287 0.005728 0.086347 0.097944 0.115739 -0.342792 0.018814 0.078939 -0.160707 -0.035920 -0.289777 -0.105650 -0.051896 -0.075282 -0.137595 0.210511 0.458660 -0.228606 0.207772 0.347706 0.097880 -0.122771 0.074050 0.237114 0.282720 -0.262115 -0.346464 0.073548 -0.067636 0.081252 -0.005670 0.451745 -0.267939 0.123772 0.105198 0.178243 -0.036691 -0.200910 0.151735 -0.262240 0.151435 0.401806 0.115428 -0.324485 -0.066228 -0.001643 -0.110449 
and 0.035563 -0.474144 0.685203 0.051834 0.088241 -0.443568 -0.131914 -0.022256 0.034442 0.135842 -0.185948 0.253024 -0.285044 -0.023977 -0.136639 -0.080602 -0.055297 0.526706 0.221419 -0.146776 -0.113056 0.086030 0.368552 0.017675 0.082542 0.033929 -0.234742 0.362139 0.095818 0.082190 -0.096732 -0.533898 -0.365750 0.475787 0.287868 0.087889 -0.086000 -0.163377 0.033174 0.076093 -0.100481 0.207767 0.017335 -0.350283 0.341452 0.055692 -0.150932 -0.319654 0.400696 -0.625294 0.282955 0.159586 0.074187 0.038027 -0.257717 -0.403875 -0.048940 -0.053422 -0.096747 -0.330356 -0.007877 0.125530 0.151499 0.203494 -0.144907 0.070656 0.417791 -0.141939 -0.256471 -0.312356 0.006074 0.150498 -0.177758 -0.385742 -0.182234 -0.294958 -0.470029 0.291310 0.224283 0.146304 0.084442 0.251377 0.168722 0.088428 -0.343018 0.135856 0.077779 -0.114613 0.264679 -0.163568 0.253352 -0.032429 0.211161 0.158160 -0.013996 -0.199318 0.049896 -0.012550 0.040729 -0.183825 0.534890 -0.193785 -0.238546 0.158442 0.059161 0.439194 -0.144278 -0.211920 -0.056491 0.338441 0.100402 0.183182 -0.137097 -0.326006 0.091674 0.185873 -0.022452 0.017581 0.135943 -0.123346 -0.164406 -0.079405 -0.033385 0.064684 0.046951 0.098250 0.175148 -0.036216 0.240645 0.146890 0.401577 0.709293 -0.497059 -0.097353 -0.061503 0.430291 0.114092 -0.423937 0.141687 -0.359399 -0.212127 0.272056 -0.000149 0.486920 -0.186365 0.349900 0.320960 0.362399 -0.950579 0.047074 -0.459544 0.306128 -0.138088 0.070955 0.006055 0.104342 0.115149 0.138419 -0.406608 0.018744 0.095593 -0.193990 -0.039872 -0.351651 -0.126828 -0.061274 -0.094935 -0.169669 0.252345 0.552303 -0.277823 0.250976 0.413638 0.114199 -0.151259 0.088153 0.282996 0.336659 -0.312344 -0.419951 0.085252 -0.081494 0.101383 -0.009981 0.539609 -0.321634 0.152708 0.129313 0.214098 -0.049114 -0.242146 0.183367 -0.311224 0.186306 0.483831 0.134628 -0.391065 -0.078524 -0.003142 -0.131432 
the 0.029191 -0.374550 0.543544 0.039024 0.072865 -0.353129 -0.103669 -0.020871 0.029393 0.106664 -0.149260 0.197968 -0.223596 -0.018573 -0.108187 -0.065155 -0.043045 0.413880 0.176798 -0.115751 -0.092670 0.066684 0.290207 0.014777 0.063473 0.025574 -0.184535 0.282992 0.079382 0.066948 -0.077964 -0.422459 -0.289618 0.373291 0.227790 0.069521 -0.066616 -0.131375 0.023214 0.061963 -0.078372 0.163356 0.014317 -0.280533 0.273354 0.038942 -0.118065 -0.254865 0.317834 -0.495127 0.225420 0.123469 0.059491 0.027050 -0.205000 -0.320549 -0.037284 -0.043972 -0.073495 -0.261058 -0.002760 0.100713 0.118198 0.161040 -0.113505 0.054572 0.329261 -0.109575 -0.201796 -0.247707 0.007696 0.114795 -0.136758 -0.307709 -0.142509 -0.235746 -0.369748 0.231683 0.177944 0.115958 0.066599 0.199666 0.135204 0.069962 -0.275496 0.106890 0.059965 -0.088981 0.207328 -0.131664 0.198613 -0.029695 0.169508 0.127082 -0.008828 -0.155271 0.042168 -0.009228 0.035089 -0.145813 0.423016 -0.155325 -0.187293 0.125069 0.047435 0.346337 -0.111138 -0.164496 -0.043081 0.270044 0.077414 0.145124 -0.106924 -0.259784 0.071749 0.149223 -0.018002 0.009645 0.107249 -0.098177 -0.133219 -0.061633 -0.027106 0.046920 0.039952 0.075358 0.138007 -0.026020 0.188803 0.113951 0.317579 0.558546 -0.392301 -0.076583 -0.048641 0.338796 0.089807 -0.334780 0.110793 -0.287123 -0.166761 0.212967 -0.000230 0.386272 -0.150917 0.276637 0.252668 0.286229 -0.753243 0.037526 -0.359339 0.240160 -0.109704 0.054622 0.005962 0.083063 0.092924 0.111419 -0.324871 0.017666 0.074394 -0.154649 -0.030531 -0.278137 -0.097814 -0.045277 -0.073020 -0.132831 0.197528 0.437142 -0.219462 0.194138 0.326389 0.092441 -0.118129 0.072719 0.227709 0.265253 -0.245911 -0.330697 0.069552 -0.065455 0.078093 -0.006488 0.430922 -0.254075 0.119107 0.103519 0.166351 -0.035350 -0.191872 0.145555 -0.247197 0.147791 0.382391 0.107482 -0.308413 -0.059814 0.000486 -0.104034 
in 0.032167 -0.459221 0.661328 0.050023 0.089043 -0.428299 -0.124867 -0.019313 0.032604 0.128446 -0.182233 0.241202 -0.273758 -0.025744 -0.134352 -0.079405 -0.053016 0.508819 0.213866 -0.140555 -0.112278 0.080488 0.353083 0.017819 0.075985 0.032386 -0.228047 0.351417 0.094530 0.080914 -0.092718 -0.518747 -0.354116 0.462841 0.276320 0.085519 -0.083411 -0.158354 0.033103 0.074937 -0.098828 0.199225 0.021268 -0.341917 0.329803 0.054809 -0.145942 -0.307741 0.387531 -0.603883 0.275390 0.150702 0.072027 0.038152 -0.249861 -0.390499 -0.051327 -0.050136 -0.095289 -0.318521 -0.004296 0.120402 0.148284 0.199744 -0.140494 0.064926 0.404184 -0.133908 -0.247573 -0.305430 0.010501 0.141345 -0.169836 -0.375491 -0.176205 -0.284360 -0.455677 0.279395 0.216195 0.138365 0.085875 0.246040 0.160708 0.084078 -0.331079 0.130535 0.071340 -0.111853 0.254698 -0.161221 0.245191 -0.030355 0.207232 0.154216 -0.012838 -0.190772 0.045740 -0.014617 0.044218 -0.175663 0.513427 -0.191050 -0.232861 0.153966 0.058447 0.425169 -0.133661 -0.201270 -0.057793 0.328775 0.094023 0.178444 -0.130367 -0.319543 0.090164 0.182057 -0.024232 0.013387 0.130516 -0.116126 -0.159938 -0.080351 -0.033476 0.059086 0.045382 0.095140 0.167488 -0.035273 0.228362 0.140083 0.391756 0.684042 -0.482751 -0.095675 -0.057637 0.418199 0.110098 -0.410497 0.136243 -0.346093 -0.201874 0.263711 -0.001583 0.471403 -0.184403 0.337172 0.307665 0.349359 -0.917660 0.045906 -0.443040 0.294356 -0.131684 0.064665 0.005195 0.104835 0.112900 0.136828 -0.394455 0.018165 0.093230 -0.188702 -0.039412 -0.342176 -0.122149 -0.057032 -0.091625 -0.164454 0.243041 0.535250 -0.270620 0.239091 0.399909 0.113485 -0.145554 0.086026 0.274689 0.329633 -0.307501 -0.405259 0.082288 -0.079766 0.096656 -0.007404 0.525364 -0.311825 0.147929 0.122037 0.206109 -0.044780 -0.231987 0.177834 -0.301890 0.180809 0.467364 0.131292 -0.376664 -0.074000 0.001220 -0.126852 
with 0.036152 -0.471356 0.687891 0.053672 0.087405 -0.444035 -0.130368 -0.023917 0.035286 0.136186 -0.185906 0.253622 -0.280215 -0.024845 -0.134273 -0.081759 -0.056014 0.524392 0.223002 -0.149586 -0.117560 0.084926 0.368699 0.017513 0.083033 0.034109 -0.233766 0.363159 0.097918 0.083357 -0.097409 -0.535636 -0.364259 0.477734 0.287672 0.089264 -0.087982 -0.167674 0.032903 0.077915 -0.098465 0.208064 0.019026 -0.355718 0.342793 0.052614 -0.149740 -0.321015 0.398714 -0.627325 0.284537 0.155808 0.074794 0.039861 -0.256288 -0.406936 -0.051063 -0.054837 -0.095200 -0.329540 -0.004305 0.125045 0.154375 0.207925 -0.141214 0.067205 0.418109 -0.142372 -0.255517 -0.316282 0.010023 0.150101 -0.178629 -0.386739 -0.178603 -0.294517 -0.468957 0.290795 0.226603 0.146532 0.089038 0.253752 0.169269 0.084974 -0.344416 0.132923 0.077330 -0.113252 0.263487 -0.165919 0.251312 -0.032976 0.213995 0.161446 -0.009863 -0.199993 0.052874 -0.011721 0.044798 -0.182680 0.534017 -0.194798 -0.240134 0.155758 0.061089 0.439110 -0.143330 -0.210139 -0.058934 0.338283 0.099101 0.183125 -0.138846 -0.328027 0.090510 0.186838 -0.025797 0.014257 0.134582 -0.120412 -0.168529 -0.082196 -0.034502 0.059606 0.045307 0.094517 0.174666 -0.037668 0.237310 0.144154 0.403904 0.709114 -0.500257 -0.097794 -0.061876 0.432008 0.112243 -0.425605 0.142754 -0.361326 -0.209548 0.271143 0.002851 0.488304 -0.187908 0.347026 0.319856 0.364075 -0.952096 0.045096 -0.459670 0.307632 -0.135241 0.068438 0.006668 0.105871 0.114169 0.137560 -0.408641 0.018728 0.096191 -0.194949 -0.038960 -0.354749 -0.126233 -0.059735 -0.094534 -0.166486 0.253377 0.552394 -0.275963 0.249397 0.418354 0.115243 -0.147933 0.090261 0.285953 0.340073 -0.317361 -0.416420 0.084840 -0.081144 0.098735 -0.006281 0.541027 -0.322979 0.150535 0.127925 0.215468 -0.051319 -0.243795 0.184301 -0.310508 0.183405 0.483574 0.136908 -0.385691 -0.079661 -0.000812 -0.134716 
to 0.035208 -0.485321 0.701791 0.051790 0.092416 -0.455115 -0.134041 -0.022647 0.032726 0.134931 -0.191052 0.256266 -0.292656 -0.026437 -0.137139 -0.081989 -0.059002 0.539678 0.227388 -0.153908 -0.118069 0.089392 0.375729 0.019373 0.081856 0.037901 -0.239580 0.368453 0.100332 0.085230 -0.099743 -0.547495 -0.374182 0.490580 0.289439 0.085519 -0.085537 -0.165528 0.028138 0.078520 -0.101375 0.210371 0.017308 -0.358763 0.347725 0.055337 -0.154487 -0.328745 0.409805 -0.642994 0.287069 0.162910 0.073665 0.037950 -0.265668 -0.412156 -0.049172 -0.056093 -0.100046 -0.336123 -0.003100 0.130449 0.157867 0.211572 -0.148729 0.070714 0.424270 -0.142276 -0.259423 -0.323086 0.008019 0.152578 -0.183495 -0.395164 -0.185120 -0.301748 -0.480709 0.297891 0.230279 0.148093 0.089199 0.255477 0.170055 0.090058 -0.350449 0.140071 0.077056 -0.117608 0.267840 -0.166964 0.260149 -0.035964 0.218658 0.164732 -0.011238 -0.201766 0.053002 -0.012998 0.044637 -0.191496 0.543031 -0.198788 -0.244074 0.160426 0.062926 0.445092 -0.145070 -0.211278 -0.060078 0.348644 0.100368 0.189291 -0.140409 -0.333350 0.089701 0.194282 -0.024561 0.019513 0.138710 -0.123705 -0.172940 -0.084849 -0.039316 0.062170 0.048013 0.100443 0.178031 -0.036145 0.245562 0.152022 0.413838 0.725650 -0.509583 -0.100041 -0.063854 0.436673 0.117079 -0.431370 0.145473 -0.368557 -0.215696 0.277055 0.001199 0.497942 -0.192761 0.353361 0.326011 0.367537 -0.972115 0.050656 -0.465945 0.314772 -0.137930 0.070244 0.007526 0.105246 0.114602 0.142888 -0.418024 0.019906 0.100361 -0.195367 -0.042814 -0.361855 -0.126451 -0.062067 -0.096728 -0.172013 0.254065 0.565023 -0.283946 0.252336 0.428088 0.115421 -0.152211 0.091084 0.290613 0.347066 -0.321533 -0.428829 0.090343 -0.084872 0.101817 -0.010413 0.554536 -0.334037 0.153504 0.131289 0.220295 -0.047306 -0.249639 0.186591 -0.319254 0.189108 0.491817 0.140999 -0.399965 -0.080433 -0.001538 -0.132933 
-LRB- 0.038437 -0.562988 0.813475 0.060293 0.104433 -0.527896 -0.151710 -0.024315 0.041524 0.160610 -0.220182 0.299434 -0.335173 -0.031201 -0.162085 -0.098163 -0.067577 0.626438 0.267325 -0.176349 -0.135343 0.100917 0.437546 0.020006 0.097694 0.039911 -0.279495 0.429888 0.116458 0.099887 -0.113378 -0.636631 -0.431301 0.566925 0.338607 0.102105 -0.100549 -0.194344 0.037755 0.090697 -0.118970 0.246916 0.024966 -0.421746 0.408984 0.063590 -0.176710 -0.384427 0.473960 -0.747287 0.335294 0.188606 0.089224 0.044030 -0.308621 -0.478655 -0.056834 -0.064658 -0.115312 -0.390600 -0.004241 0.148130 0.181195 0.247353 -0.168378 0.081218 0.495120 -0.167238 -0.306177 -0.372856 0.008754 0.176119 -0.208960 -0.457587 -0.215679 -0.349112 -0.555090 0.346331 0.266928 0.171329 0.101591 0.299200 0.197590 0.105918 -0.407245 0.159277 0.090399 -0.136672 0.309936 -0.195910 0.298286 -0.041302 0.252601 0.188001 -0.016083 -0.239092 0.060479 -0.019157 0.050273 -0.220042 0.634022 -0.231832 -0.286157 0.188717 0.068738 0.519921 -0.167703 -0.244494 -0.066187 0.406417 0.118108 0.220100 -0.164579 -0.390579 0.109559 0.224186 -0.025941 0.022151 0.161604 -0.146026 -0.198370 -0.094647 -0.042105 0.072072 0.053533 0.112858 0.206608 -0.044383 0.285407 0.173633 0.477576 0.842194 -0.591807 -0.118390 -0.074165 0.510039 0.135242 -0.501460 0.167211 -0.427494 -0.249248 0.324240 0.000925 0.580771 -0.224745 0.412121 0.382847 0.428860 -1.130585 0.056922 -0.541488 0.362201 -0.160551 0.084334 0.007433 0.123012 0.136495 0.168159 -0.484198 0.021889 0.117502 -0.228246 -0.048599 -0.419629 -0.151647 -0.071087 -0.112444 -0.201104 0.298997 0.655397 -0.331648 0.294759 0.492491 0.136726 -0.175124 0.102408 0.338167 0.400134 -0.372579 -0.494232 0.101457 -0.097287 0.119316 -0.011879 0.641857 -0.385999 0.178901 0.151007 0.252678 -0.056841 -0.290023 0.216539 -0.374493 0.221642 0.572685 0.162234 -0.459619 -0.095993 -0.001935 -0.157753 
-RRB- 0.033642 -0.486380 0.700508 0.051881 0.090642 -0.452839 -0.130425 -0.021744 0.035345 0.136908 -0.187900 0.259544 -0.290576 -0.028003 -0.139333 -0.081322 -0.057354 0.541890 0.227814 -0.153032 -0.119434 0.090098 0.379441 0.017358 0.081817 0.038357 -0.236757 0.371744 0.099818 0.083308 -0.096803 -0.546845 -0.372238 0.491668 0.292766 0.088861 -0.086548 -0.169888 0.029976 0.078642 -0.100164 0.213704 0.021040 -0.361140 0.353062 0.051072 -0.152303 -0.329510 0.408175 -0.644224 0.285942 0.160808 0.074008 0.036118 -0.267042 -0.415199 -0.049687 -0.056626 -0.097322 -0.337781 -0.006359 0.132018 0.156473 0.213277 -0.147426 0.070702 0.428514 -0.143253 -0.265062 -0.323350 0.008133 0.152528 -0.183287 -0.397045 -0.182563 -0.300613 -0.481133 0.298583 0.230862 0.147916 0.090581 0.257395 0.170115 0.090255 -0.349423 0.137454 0.079855 -0.115114 0.269797 -0.172209 0.259176 -0.035606 0.217146 0.164478 -0.015288 -0.202687 0.052182 -0.015954 0.042995 -0.190382 0.545662 -0.201028 -0.249436 0.159485 0.061682 0.451918 -0.142161 -0.212669 -0.058558 0.348072 0.103528 0.188655 -0.141017 -0.336477 0.090234 0.191362 -0.022310 0.018999 0.139214 -0.126536 -0.172149 -0.083340 -0.035647 0.065068 0.047678 0.098188 0.176909 -0.037053 0.243986 0.149510 0.412659 0.725521 -0.512558 -0.103212 -0.064799 0.442401 0.114806 -0.431659 0.145729 -0.368662 -0.218733 0.280030 0.001151 0.497855 -0.194986 0.358488 0.327722 0.366256 -0.969936 0.048701 -0.467749 0.311112 -0.138415 0.072721 0.005702 0.105063 0.116095 0.143217 -0.417503 0.018639 0.098823 -0.196644 -0.039181 -0.362890 -0.126981 -0.061890 -0.099310 -0.175132 0.256252 0.566096 -0.285460 0.255614 0.426510 0.116217 -0.154008 0.088775 0.293481 0.346901 -0.322805 -0.427278 0.086191 -0.087567 0.103770 -0.009342 0.553131 -0.331596 0.156813 0.132624 0.218053 -0.048925 -0.250413 0.185203 -0.322719 0.189284 0.489816 0.138274 -0.398576 -0.078323 -0.001373 -0.135880 
a 0.033671 -0.471901 0.686629 0.049816 0.088758 -0.444560 -0.126258 -0.021046 0.036479 0.135058 -0.183313 0.249496 -0.284389 -0.026348 -0.138212 -0.082334 -0.059440 0.524454 0.223700 -0.149335 -0.113717 0.087126 0.368939 0.019073 0.082668 0.034008 -0.231032 0.360773 0.100563 0.080198 -0.099134 -0.536534 -0.362375 0.477289 0.282778 0.087428 -0.088132 -0.166935 0.031626 0.074526 -0.099501 0.208967 0.021024 -0.354411 0.341716 0.051925 -0.146995 -0.318260 0.399375 -0.627175 0.280812 0.158758 0.076724 0.037879 -0.258602 -0.404836 -0.047963 -0.053484 -0.097942 -0.331764 -0.004521 0.123621 0.152747 0.205584 -0.142889 0.070906 0.418404 -0.142142 -0.252576 -0.313495 0.009313 0.149439 -0.175414 -0.382681 -0.180546 -0.295790 -0.466020 0.287892 0.222915 0.142355 0.085669 0.252249 0.165332 0.086472 -0.344907 0.132455 0.073802 -0.113982 0.263469 -0.166826 0.253797 -0.030918 0.212017 0.162563 -0.010274 -0.198706 0.049289 -0.012831 0.041423 -0.183930 0.533108 -0.195719 -0.240829 0.154413 0.060445 0.438177 -0.140167 -0.206307 -0.058729 0.340267 0.100012 0.183879 -0.138198 -0.326047 0.091699 0.186908 -0.022408 0.016385 0.136328 -0.120270 -0.164143 -0.081837 -0.035868 0.060530 0.047110 0.095715 0.173401 -0.036796 0.236268 0.145444 0.404154 0.704997 -0.495113 -0.097681 -0.060735 0.429974 0.114878 -0.422848 0.140723 -0.357361 -0.211508 0.270417 -0.000405 0.486199 -0.189756 0.348829 0.321348 0.362593 -0.950780 0.048738 -0.455927 0.305496 -0.137952 0.069424 0.005050 0.106044 0.113467 0.140395 -0.408850 0.018505 0.094473 -0.191799 -0.042788 -0.351891 -0.124119 -0.059653 -0.093989 -0.167365 0.252595 0.553775 -0.276697 0.250671 0.417375 0.117010 -0.149963 0.088294 0.286208 0.339382 -0.313553 -0.415677 0.086315 -0.081656 0.095649 -0.008942 0.538255 -0.325153 0.148444 0.126877 0.211606 -0.050650 -0.243423 0.182481 -0.309793 0.182478 0.480225 0.138310 -0.386270 -0.078158 0.000221 -0.132167 
that 0.040625 -0.578506 0.839917 0.063537 0.110107 -0.543019 -0.158381 -0.028924 0.045518 0.162996 -0.225880 0.309021 -0.348697 -0.030908 -0.168931 -0.097196 -0.069793 0.645509 0.270902 -0.181290 -0.140365 0.104529 0.451195 0.020954 0.101161 0.039483 -0.285089 0.442639 0.122987 0.100249 -0.119044 -0.655347 -0.446597 0.582161 0.351800 0.103626 -0.108200 -0.200802 0.038442 0.095229 -0.125020 0.254368 0.024412 -0.433989 0.420559 0.064382 -0.181687 -0.394261 0.490853 -0.768985 0.348582 0.192887 0.090895 0.049743 -0.316217 -0.498744 -0.064736 -0.069478 -0.115662 -0.404475 -0.004610 0.155866 0.184769 0.254767 -0.174923 0.085888 0.513523 -0.172891 -0.311703 -0.385871 0.008966 0.183529 -0.219368 -0.474227 -0.218507 -0.361455 -0.574968 0.354926 0.274084 0.175966 0.104145 0.310446 0.202179 0.107514 -0.420252 0.166428 0.094875 -0.141278 0.319355 -0.201872 0.308998 -0.039889 0.257608 0.194306 -0.016606 -0.243106 0.059189 -0.016766 0.052907 -0.225629 0.653159 -0.240749 -0.295383 0.192256 0.071499 0.534810 -0.170569 -0.254063 -0.072981 0.416928 0.123646 0.224118 -0.167154 -0.402110 0.114416 0.231616 -0.025580 0.019340 0.169072 -0.147770 -0.205408 -0.101334 -0.042122 0.075767 0.056515 0.118695 0.214258 -0.045440 0.293188 0.181997 0.495585 0.865501 -0.610751 -0.120817 -0.076722 0.529662 0.140761 -0.520307 0.173261 -0.442868 -0.256933 0.329504 0.000867 0.601195 -0.233100 0.426438 0.392422 0.441373 -1.165308 0.057651 -0.562346 0.374941 -0.166467 0.086242 0.007311 0.128941 0.141507 0.170519 -0.499773 0.026118 0.116178 -0.238214 -0.051667 -0.432393 -0.156607 -0.072287 -0.115175 -0.202361 0.309501 0.680059 -0.340873 0.307788 0.511280 0.143717 -0.183764 0.109745 0.350244 0.415039 -0.385345 -0.508723 0.107402 -0.101284 0.119638 -0.009222 0.665932 -0.395887 0.187398 0.156849 0.258748 -0.060585 -0.295744 0.225916 -0.382306 0.225672 0.590999 0.167848 -0.478809 -0.094561 -0.001889 -0.163217 
by 0.029629 -0.416698 0.599705 0.046327 0.079547 -0.390118 -0.111958 -0.014957 0.030319 0.117676 -0.161015 0.224524 -0.250866 -0.023333 -0.117645 -0.071199 -0.050712 0.464699 0.197673 -0.131311 -0.101701 0.078340 0.324775 0.013441 0.070371 0.029004 -0.205217 0.315804 0.088408 0.072955 -0.083840 -0.468243 -0.319975 0.420590 0.250004 0.076333 -0.074957 -0.146517 0.028573 0.066172 -0.090146 0.179242 0.020126 -0.310669 0.301268 0.046002 -0.134000 -0.284147 0.352302 -0.549923 0.247385 0.136909 0.062406 0.032848 -0.224004 -0.354610 -0.046806 -0.044478 -0.083419 -0.291903 -0.007981 0.108474 0.134239 0.183284 -0.127768 0.062036 0.365537 -0.123276 -0.223392 -0.277167 0.006045 0.128342 -0.153495 -0.341410 -0.157184 -0.258092 -0.413032 0.255360 0.200470 0.125066 0.073501 0.219472 0.147052 0.075557 -0.301592 0.119334 0.065284 -0.098451 0.231762 -0.146151 0.221733 -0.028460 0.185455 0.140746 -0.010469 -0.176062 0.045230 -0.010480 0.036692 -0.162673 0.468909 -0.170757 -0.209837 0.136603 0.051654 0.381574 -0.121708 -0.180529 -0.049499 0.296527 0.084974 0.162026 -0.118600 -0.287023 0.082259 0.168133 -0.022057 0.016267 0.117186 -0.105888 -0.143978 -0.069146 -0.033867 0.053043 0.039653 0.086762 0.152371 -0.029863 0.207529 0.129812 0.352164 0.620567 -0.433783 -0.086155 -0.052167 0.379016 0.100103 -0.370233 0.125265 -0.318240 -0.187053 0.235665 -0.001647 0.427552 -0.165852 0.306639 0.279367 0.317944 -0.831692 0.042038 -0.400376 0.268745 -0.120045 0.057954 0.002856 0.091660 0.100515 0.119595 -0.360645 0.017375 0.087804 -0.171190 -0.035691 -0.306989 -0.112063 -0.053677 -0.080625 -0.149330 0.220369 0.484737 -0.243720 0.220134 0.364836 0.099936 -0.129804 0.077642 0.248453 0.298979 -0.273986 -0.364788 0.076704 -0.073165 0.086092 -0.009166 0.477490 -0.287899 0.134125 0.111115 0.189734 -0.039980 -0.213496 0.161537 -0.274186 0.163188 0.424053 0.120573 -0.340881 -0.067176 -0.000620 -0.116853 
for 0.026648 -0.366392 0.533667 0.040458 0.067189 -0.348247 -0.100128 -0.015567 0.029621 0.104569 -0.146221 0.192873 -0.218981 -0.017679 -0.105949 -0.062773 -0.043710 0.409446 0.175350 -0.113160 -0.091250 0.066789 0.283388 0.013934 0.061309 0.023653 -0.181628 0.281723 0.078463 0.063033 -0.079218 -0.414393 -0.283323 0.372443 0.220116 0.067696 -0.065267 -0.127387 0.022195 0.058469 -0.076562 0.157788 0.018314 -0.275998 0.265388 0.044426 -0.114114 -0.251008 0.310572 -0.487146 0.219371 0.124545 0.057164 0.027938 -0.199582 -0.316428 -0.041752 -0.044642 -0.076799 -0.257216 -0.005579 0.098516 0.115989 0.160983 -0.111321 0.055775 0.322234 -0.110854 -0.196451 -0.247013 0.006313 0.114116 -0.136898 -0.298896 -0.140748 -0.230976 -0.364209 0.222429 0.175178 0.114404 0.068735 0.198702 0.132021 0.068561 -0.270526 0.104335 0.058828 -0.089417 0.201800 -0.126287 0.192449 -0.028734 0.165689 0.125905 -0.008347 -0.155594 0.040223 -0.009538 0.035338 -0.146444 0.415886 -0.153693 -0.188473 0.124344 0.047216 0.341784 -0.110859 -0.161784 -0.044562 0.259654 0.077952 0.145040 -0.109013 -0.258563 0.072298 0.145295 -0.016821 0.012535 0.108798 -0.093069 -0.131634 -0.062413 -0.029958 0.045521 0.035626 0.075320 0.137327 -0.028103 0.188244 0.113434 0.315962 0.547319 -0.383170 -0.077295 -0.049080 0.332512 0.090612 -0.331619 0.113042 -0.278834 -0.163599 0.211138 0.003105 0.378027 -0.148199 0.267781 0.246959 0.278629 -0.740038 0.036707 -0.358195 0.237529 -0.108265 0.052532 0.001528 0.082447 0.092686 0.106178 -0.317565 0.013815 0.073247 -0.149164 -0.031342 -0.273619 -0.100925 -0.049011 -0.074711 -0.131641 0.196785 0.432511 -0.213120 0.192567 0.323340 0.090469 -0.117185 0.067052 0.222404 0.265584 -0.244952 -0.324570 0.068706 -0.066044 0.077409 -0.007048 0.419622 -0.253373 0.116981 0.097154 0.165633 -0.037738 -0.187028 0.139741 -0.241701 0.141798 0.377617 0.106218 -0.302796 -0.059380 -0.000029 -0.103034 
protein 0.040451 -0.522329 0.756717 0.058757 0.098670 -0.489059 -0.142909 -0.025063 0.035626 0.147990 -0.203016 0.279579 -0.312608 -0.026297 -0.148648 -0.085987 -0.063279 0.580884 0.245097 -0.165603 -0.127655 0.097436 0.406844 0.019310 0.087633 0.036799 -0.256029 0.397285 0.109800 0.090936 -0.106726 -0.594833 -0.403969 0.525001 0.317042 0.094481 -0.096544 -0.179525 0.035953 0.085020 -0.110098 0.224953 0.023649 -0.388793 0.377422 0.057226 -0.164068 -0.353549 0.441428 -0.692453 0.313396 0.174894 0.080034 0.044019 -0.282076 -0.444041 -0.055310 -0.063236 -0.108247 -0.361775 -0.003675 0.140242 0.166088 0.230012 -0.158549 0.075652 0.461407 -0.154930 -0.282220 -0.345438 0.011319 0.162285 -0.198684 -0.426971 -0.198439 -0.325593 -0.517242 0.319888 0.251202 0.161236 0.097707 0.277709 0.186676 0.094768 -0.381126 0.150905 0.086055 -0.122843 0.287350 -0.181741 0.276037 -0.037609 0.233340 0.176735 -0.015062 -0.223802 0.055697 -0.015216 0.050438 -0.203177 0.588806 -0.214036 -0.264253 0.172330 0.067349 0.482612 -0.153063 -0.227055 -0.065646 0.374386 0.111403 0.199798 -0.152775 -0.360539 0.100370 0.208938 -0.023624 0.019151 0.150066 -0.133612 -0.182853 -0.091799 -0.039507 0.069494 0.053395 0.107276 0.194790 -0.039560 0.261214 0.161456 0.447912 0.778942 -0.549133 -0.109795 -0.070854 0.474692 0.125869 -0.467341 0.156627 -0.396062 -0.235138 0.298684 -0.000002 0.540102 -0.206139 0.380911 0.354540 0.396687 -1.044933 0.050415 -0.505498 0.337659 -0.150947 0.077390 0.007647 0.118674 0.123478 0.154183 -0.449028 0.020694 0.106865 -0.214509 -0.046010 -0.391781 -0.136117 -0.065133 -0.102670 -0.186887 0.273765 0.608519 -0.304837 0.274473 0.456980 0.128581 -0.165480 0.098457 0.313051 0.372089 -0.346225 -0.460954 0.092775 -0.092376 0.106088 -0.012120 0.594447 -0.358474 0.166300 0.139927 0.236768 -0.051360 -0.265416 0.200744 -0.348192 0.205187 0.530837 0.149576 -0.428412 -0.083786 -0.001888 -0.147085 
is 0.033152 -0.421068 0.611710 0.048519 0.078876 -0.396286 -0.113733 -0.016681 0.032790 0.117779 -0.164029 0.223830 -0.253715 -0.022004 -0.121985 -0.073700 -0.053834 0.470378 0.198609 -0.132756 -0.102944 0.075740 0.325576 0.018909 0.071672 0.030177 -0.205063 0.323777 0.086124 0.071750 -0.087640 -0.477540 -0.323522 0.426779 0.253618 0.076015 -0.077533 -0.146156 0.029135 0.067805 -0.089852 0.181242 0.019373 -0.313045 0.303651 0.048671 -0.134628 -0.284612 0.356792 -0.557889 0.251252 0.141932 0.062647 0.033522 -0.231304 -0.359878 -0.047577 -0.049376 -0.088533 -0.293796 -0.003871 0.113543 0.137589 0.186387 -0.126919 0.058995 0.371811 -0.126498 -0.227377 -0.279954 0.007673 0.130417 -0.160303 -0.342413 -0.161826 -0.265316 -0.416735 0.256585 0.200307 0.128701 0.077288 0.227313 0.149131 0.075855 -0.304592 0.119319 0.066929 -0.100349 0.235194 -0.148384 0.225370 -0.028453 0.188971 0.142933 -0.008554 -0.175774 0.045040 -0.014984 0.041518 -0.163496 0.475515 -0.174849 -0.212649 0.140462 0.053957 0.386836 -0.126923 -0.187408 -0.048001 0.303895 0.086948 0.162290 -0.120714 -0.293532 0.081296 0.165398 -0.020185 0.013094 0.121786 -0.111471 -0.147573 -0.073117 -0.033604 0.053753 0.040493 0.083963 0.155915 -0.034405 0.213549 0.132711 0.358459 0.626896 -0.443502 -0.089439 -0.053956 0.380695 0.102144 -0.376715 0.127731 -0.322022 -0.190282 0.239527 0.003327 0.435323 -0.166155 0.309700 0.287072 0.321153 -0.845889 0.043830 -0.409809 0.273747 -0.122149 0.058562 0.006863 0.091357 0.100300 0.123974 -0.363157 0.016765 0.086661 -0.172692 -0.034800 -0.311001 -0.111901 -0.052581 -0.081477 -0.147327 0.222842 0.491786 -0.245492 0.222670 0.370368 0.102889 -0.129894 0.077845 0.255510 0.301175 -0.276470 -0.369138 0.077769 -0.075403 0.085523 -0.007584 0.480591 -0.288685 0.133186 0.111175 0.187763 -0.043261 -0.215071 0.161091 -0.275926 0.166892 0.426883 0.119397 -0.346663 -0.071753 0.001474 -0.119984 
beta 0.032857 -0.459091 0.662625 0.049313 0.083542 -0.430438 -0.126292 -0.022508 0.032071 0.126999 -0.179799 0.245311 -0.274384 -0.024594 -0.129056 -0.076396 -0.055451 0.509320 0.214940 -0.143564 -0.112710 0.081831 0.358783 0.017888 0.075882 0.030438 -0.228768 0.349537 0.095696 0.078748 -0.095090 -0.519588 -0.354012 0.464969 0.277652 0.082523 -0.082614 -0.160130 0.028123 0.075232 -0.097552 0.202534 0.020312 -0.339545 0.331729 0.050986 -0.146061 -0.309861 0.386683 -0.605973 0.276040 0.151967 0.070753 0.035539 -0.247024 -0.389946 -0.048751 -0.054995 -0.093081 -0.321088 -0.007581 0.119765 0.146238 0.198562 -0.140820 0.066924 0.405321 -0.133749 -0.249359 -0.308515 0.005338 0.142144 -0.168622 -0.374869 -0.173725 -0.287080 -0.452559 0.279251 0.216308 0.141149 0.083197 0.245958 0.165669 0.082116 -0.332986 0.132750 0.072845 -0.108642 0.254292 -0.157370 0.243144 -0.033090 0.209156 0.155403 -0.015294 -0.193466 0.049187 -0.012975 0.044824 -0.180646 0.518452 -0.189148 -0.233715 0.150869 0.055566 0.423147 -0.135307 -0.198367 -0.054557 0.332271 0.095840 0.180695 -0.133219 -0.317585 0.087819 0.182599 -0.021775 0.014086 0.133407 -0.118804 -0.164260 -0.077738 -0.038592 0.062196 0.045926 0.093652 0.167061 -0.033288 0.231950 0.142913 0.392841 0.684384 -0.481507 -0.093346 -0.061803 0.414715 0.112143 -0.409089 0.136693 -0.350696 -0.206138 0.262793 0.000312 0.471096 -0.181007 0.338625 0.312119 0.347023 -0.917102 0.043822 -0.439006 0.292943 -0.132701 0.064879 0.002882 0.102114 0.109888 0.138683 -0.394899 0.018793 0.096351 -0.186398 -0.039564 -0.340462 -0.121675 -0.057599 -0.092058 -0.160105 0.239547 0.536392 -0.266997 0.243384 0.403264 0.112976 -0.142586 0.084434 0.273823 0.325749 -0.302572 -0.406489 0.081635 -0.081120 0.092907 -0.006185 0.522189 -0.315556 0.148053 0.124446 0.205777 -0.048909 -0.235776 0.175909 -0.305133 0.178134 0.466489 0.131867 -0.376159 -0.073847 -0.000908 -0.126606 
not 0.030641 -0.401128 0.581619 0.041844 0.076927 -0.373729 -0.112185 -0.018929 0.028569 0.111827 -0.155667 0.210457 -0.237723 -0.023562 -0.114082 -0.066051 -0.047535 0.443517 0.185514 -0.122281 -0.099436 0.070178 0.308923 0.017186 0.068072 0.027819 -0.198710 0.303972 0.082004 0.069148 -0.085060 -0.449450 -0.310478 0.405882 0.239928 0.071132 -0.074071 -0.138079 0.026954 0.067576 -0.082535 0.173954 0.018566 -0.300684 0.287078 0.046884 -0.128584 -0.274392 0.335759 -0.531174 0.240632 0.133984 0.059932 0.034326 -0.216480 -0.342673 -0.040593 -0.047155 -0.082796 -0.278523 -0.005203 0.108921 0.127293 0.174315 -0.118622 0.056116 0.352817 -0.118796 -0.213932 -0.266934 0.009778 0.125492 -0.151160 -0.327583 -0.153026 -0.246625 -0.394066 0.241938 0.193770 0.124326 0.070440 0.211511 0.138731 0.073817 -0.293666 0.115050 0.065924 -0.096347 0.220295 -0.140907 0.209905 -0.030314 0.178133 0.134253 -0.009049 -0.170996 0.042647 -0.013527 0.035214 -0.158263 0.449066 -0.167916 -0.202733 0.134090 0.050997 0.371840 -0.119416 -0.178481 -0.050509 0.284955 0.082741 0.154501 -0.114287 -0.277281 0.074625 0.161743 -0.021751 0.010404 0.113795 -0.102012 -0.138862 -0.069524 -0.031638 0.055987 0.039631 0.081038 0.149821 -0.031981 0.201259 0.121385 0.339746 0.594533 -0.417624 -0.083611 -0.049457 0.361230 0.094493 -0.359492 0.123342 -0.301321 -0.176660 0.228539 0.001835 0.413271 -0.158486 0.296368 0.271150 0.305133 -0.802651 0.038743 -0.387479 0.256121 -0.114970 0.057957 0.002473 0.086293 0.097811 0.116391 -0.344412 0.016961 0.079396 -0.160322 -0.037025 -0.299867 -0.104492 -0.051081 -0.077309 -0.139364 0.215032 0.466531 -0.236376 0.211117 0.352026 0.096264 -0.123366 0.073587 0.240471 0.285182 -0.265569 -0.353627 0.073795 -0.069673 0.085245 -0.010556 0.456449 -0.271663 0.128803 0.109030 0.182575 -0.043467 -0.206626 0.153274 -0.265819 0.155822 0.407037 0.117393 -0.328414 -0.066011 -0.001341 -0.110242 
cell 0.032739 -0.447086 0.647077 0.049872 0.083480 -0.420439 -0.124852 -0.021371 0.033468 0.123548 -0.176555 0.237900 -0.264672 -0.026006 -0.130181 -0.077159 -0.050679 0.494916 0.210966 -0.139358 -0.110388 0.082403 0.348417 0.016460 0.074453 0.033659 -0.220963 0.341871 0.091495 0.077233 -0.092603 -0.506397 -0.342573 0.447613 0.266729 0.078979 -0.082645 -0.155368 0.030186 0.072466 -0.094827 0.195710 0.018920 -0.333176 0.321333 0.052411 -0.137823 -0.300024 0.376993 -0.589613 0.264463 0.149862 0.070024 0.034469 -0.243285 -0.379144 -0.048129 -0.054349 -0.089317 -0.307833 -0.007264 0.120710 0.145323 0.196889 -0.135530 0.066752 0.395479 -0.129605 -0.242645 -0.294669 0.010031 0.136189 -0.166555 -0.362539 -0.171586 -0.280996 -0.439741 0.272878 0.211544 0.136171 0.083147 0.237813 0.156120 0.084453 -0.321034 0.126866 0.070496 -0.107923 0.246475 -0.158631 0.238187 -0.031903 0.197668 0.148771 -0.013889 -0.185984 0.044486 -0.014602 0.040144 -0.171622 0.499776 -0.181930 -0.224871 0.150338 0.057451 0.414309 -0.132204 -0.198375 -0.055866 0.320778 0.092074 0.174591 -0.128275 -0.309075 0.082545 0.178406 -0.021687 0.015591 0.131077 -0.115824 -0.156649 -0.074726 -0.034978 0.056872 0.042044 0.091202 0.165952 -0.035790 0.222290 0.137600 0.379990 0.665110 -0.470422 -0.090402 -0.060076 0.406746 0.110354 -0.399924 0.132827 -0.337932 -0.198486 0.257375 0.002750 0.458021 -0.177198 0.325002 0.299756 0.340334 -0.896456 0.043292 -0.433299 0.289013 -0.126969 0.066021 0.005039 0.098478 0.105359 0.132752 -0.387966 0.020451 0.088621 -0.182081 -0.037119 -0.335053 -0.119680 -0.056050 -0.086849 -0.158704 0.235051 0.519180 -0.260748 0.234662 0.390384 0.110925 -0.137993 0.084820 0.268291 0.320307 -0.297874 -0.395176 0.081611 -0.075751 0.094132 -0.010630 0.507514 -0.303901 0.140570 0.121560 0.198906 -0.045511 -0.225318 0.172639 -0.296829 0.173999 0.455927 0.126760 -0.365476 -0.075717 -0.001727 -0.126150 
receptor 0.038176 -0.518986 0.757902 0.057474 0.101775 -0.490483 -0.143206 -0.025563 0.039335 0.150158 -0.205342 0.279528 -0.314031 -0.029893 -0.153996 -0.090741 -0.062886 0.578600 0.246441 -0.163627 -0.127290 0.093277 0.405339 0.022337 0.087778 0.035111 -0.257194 0.399030 0.108692 0.091563 -0.107351 -0.593522 -0.404143 0.527350 0.314318 0.098157 -0.094521 -0.183194 0.034593 0.083994 -0.109284 0.226419 0.022232 -0.387471 0.375240 0.059888 -0.162861 -0.355405 0.443188 -0.693533 0.311371 0.177066 0.082938 0.042371 -0.285256 -0.446604 -0.056306 -0.059627 -0.104668 -0.365987 -0.004174 0.139996 0.166559 0.228496 -0.158689 0.074400 0.461323 -0.153236 -0.282618 -0.347579 0.006870 0.161382 -0.197714 -0.428418 -0.196973 -0.328551 -0.516097 0.321236 0.247524 0.162415 0.094707 0.276511 0.186046 0.093319 -0.382767 0.151030 0.085221 -0.125950 0.290371 -0.186274 0.279094 -0.039674 0.233030 0.178080 -0.014498 -0.221563 0.057821 -0.016773 0.045789 -0.204123 0.588773 -0.214476 -0.263848 0.173142 0.064866 0.484670 -0.153120 -0.228937 -0.062300 0.374987 0.106888 0.203190 -0.153107 -0.360303 0.100961 0.209226 -0.027097 0.016115 0.152529 -0.135612 -0.186826 -0.091785 -0.037175 0.067578 0.052075 0.107903 0.195233 -0.041177 0.263880 0.161372 0.445296 0.778988 -0.550340 -0.106581 -0.068015 0.475877 0.126831 -0.468583 0.157343 -0.397534 -0.232555 0.297894 0.002841 0.540730 -0.207867 0.382845 0.351557 0.399026 -1.047392 0.054615 -0.505125 0.335193 -0.150290 0.075849 0.007078 0.117703 0.127675 0.152595 -0.453197 0.022335 0.105248 -0.214666 -0.047199 -0.387871 -0.140309 -0.066011 -0.101654 -0.187302 0.275133 0.613240 -0.305576 0.278237 0.459765 0.130257 -0.163053 0.097136 0.313349 0.374902 -0.348618 -0.463465 0.094559 -0.090957 0.110748 -0.007228 0.600504 -0.355829 0.165783 0.141944 0.234750 -0.052847 -0.269150 0.199740 -0.342448 0.201873 0.532988 0.151651 -0.429420 -0.088425 0.002319 -0.147756 
interaction 0.028739 -0.375401 0.545932 0.041403 0.072460 -0.355375 -0.103965 -0.018007 0.025160 0.107794 -0.146653 0.201788 -0.223512 -0.021860 -0.109197 -0.061733 -0.045935 0.419457 0.176619 -0.115994 -0.093507 0.070625 0.293295 0.012452 0.065794 0.028289 -0.186100 0.290197 0.077528 0.067005 -0.078404 -0.428941 -0.291989 0.381657 0.229155 0.067750 -0.067468 -0.132308 0.025066 0.059974 -0.077054 0.165600 0.013755 -0.280617 0.273366 0.043231 -0.117370 -0.256667 0.320639 -0.497441 0.227724 0.126184 0.060609 0.032654 -0.205720 -0.323637 -0.040252 -0.040823 -0.075456 -0.263586 -0.004403 0.102482 0.122416 0.166724 -0.111872 0.055328 0.335156 -0.111978 -0.201879 -0.252228 0.004936 0.119239 -0.139848 -0.308152 -0.141995 -0.234280 -0.375519 0.231973 0.180531 0.113339 0.069168 0.199167 0.131203 0.068363 -0.274964 0.109124 0.058114 -0.088117 0.208613 -0.135207 0.203503 -0.026411 0.170782 0.125505 -0.010121 -0.157916 0.039896 -0.012784 0.033262 -0.144485 0.422532 -0.158124 -0.190990 0.124168 0.048115 0.346676 -0.114211 -0.166045 -0.042641 0.272024 0.077100 0.144262 -0.110183 -0.263682 0.074433 0.149938 -0.020931 0.012794 0.106748 -0.096352 -0.132996 -0.066361 -0.028508 0.050399 0.035354 0.078893 0.139227 -0.031369 0.188526 0.117292 0.320262 0.565050 -0.395961 -0.078483 -0.048993 0.342243 0.091639 -0.338076 0.110450 -0.287732 -0.168379 0.215736 -0.000023 0.388847 -0.152855 0.280461 0.253665 0.289657 -0.759949 0.040442 -0.362880 0.246056 -0.109468 0.058048 0.004466 0.082864 0.090841 0.110627 -0.326578 0.015906 0.079693 -0.152127 -0.031224 -0.279027 -0.098595 -0.049992 -0.072095 -0.133689 0.202185 0.442140 -0.222458 0.199848 0.332260 0.089883 -0.116371 0.068658 0.229288 0.270668 -0.247922 -0.332294 0.071242 -0.066788 0.076226 -0.007121 0.432419 -0.258989 0.120397 0.099427 0.170989 -0.040655 -0.191723 0.144526 -0.247688 0.149908 0.386159 0.108579 -0.310856 -0.063954 0.002720 -0.106373 
The 0.038791 -0.501882 0.727434 0.053214 0.095324 -0.471725 -0.134870 -0.024727 0.038084 0.139172 -0.198073 0.268339 -0.298766 -0.028747 -0.143452 -0.086347 -0.059298 0.560156 0.237471 -0.158251 -0.123383 0.091121 0.391965 0.019196 0.086820 0.038017 -0.247711 0.381369 0.106397 0.087098 -0.102929 -0.570907 -0.389136 0.506086 0.301093 0.093597 -0.090162 -0.174101 0.033865 0.080824 -0.105246 0.218169 0.020629 -0.375910 0.365957 0.055974 -0.160115 -0.341182 0.426285 -0.667523 0.300798 0.169805 0.080266 0.040687 -0.275382 -0.427527 -0.052790 -0.057802 -0.100760 -0.352774 -0.006218 0.131927 0.162776 0.219836 -0.152816 0.070873 0.442341 -0.145990 -0.270820 -0.333150 0.010183 0.155250 -0.187189 -0.410583 -0.189193 -0.312026 -0.500089 0.305256 0.237558 0.155819 0.090195 0.266586 0.179936 0.092263 -0.366327 0.143364 0.079278 -0.119939 0.279601 -0.174190 0.268476 -0.035824 0.227669 0.170967 -0.012972 -0.213493 0.053688 -0.015038 0.048216 -0.196370 0.567761 -0.206732 -0.253274 0.169594 0.064430 0.463850 -0.146895 -0.219023 -0.062345 0.360933 0.105375 0.195400 -0.145376 -0.350543 0.099455 0.200258 -0.027722 0.016343 0.146456 -0.128646 -0.175022 -0.087920 -0.035730 0.064164 0.051144 0.101930 0.186224 -0.040096 0.256053 0.156676 0.427248 0.749509 -0.530601 -0.105828 -0.066720 0.455182 0.123348 -0.447275 0.151280 -0.383459 -0.225560 0.289967 0.001445 0.519656 -0.197642 0.370263 0.340072 0.380836 -1.007795 0.052324 -0.483464 0.323303 -0.147115 0.074040 0.008034 0.110133 0.120599 0.148749 -0.434777 0.020054 0.102337 -0.204056 -0.046030 -0.375315 -0.134530 -0.062035 -0.101603 -0.177162 0.264531 0.588156 -0.293346 0.267200 0.442079 0.121054 -0.159233 0.091554 0.302227 0.357813 -0.332530 -0.442165 0.092139 -0.089243 0.105983 -0.007149 0.573624 -0.345217 0.160269 0.134970 0.223917 -0.050446 -0.254690 0.195164 -0.329931 0.196885 0.511657 0.145645 -0.411160 -0.085369 0.000594 -0.139564 
binding 0.033662 -0.468330 0.682104 0.054189 0.090995 -0.443294 -0.129328 -0.019778 0.035784 0.132469 -0.185864 0.252620 -0.282435 -0.024548 -0.137265 -0.078049 -0.056225 0.521251 0.221440 -0.149342 -0.116918 0.085907 0.368199 0.019355 0.079918 0.033363 -0.233370 0.357281 0.099536 0.081578 -0.095187 -0.531861 -0.360448 0.477511 0.285305 0.082370 -0.087427 -0.160655 0.028600 0.077190 -0.099790 0.205234 0.019090 -0.352307 0.340147 0.051675 -0.146562 -0.319510 0.400183 -0.622298 0.279290 0.154618 0.076108 0.036480 -0.257709 -0.399969 -0.051341 -0.053496 -0.094154 -0.329206 -0.006262 0.123331 0.151447 0.203840 -0.144447 0.071208 0.417530 -0.138567 -0.252294 -0.312649 0.007253 0.145261 -0.177738 -0.384249 -0.180125 -0.291924 -0.465590 0.286281 0.223461 0.146066 0.084649 0.253778 0.166167 0.086090 -0.338271 0.137130 0.075210 -0.113303 0.261936 -0.166457 0.253281 -0.032407 0.213649 0.159733 -0.011401 -0.200860 0.049795 -0.013099 0.042372 -0.182053 0.529316 -0.191161 -0.240583 0.158186 0.061460 0.432698 -0.138370 -0.204770 -0.058237 0.339988 0.097850 0.183827 -0.135171 -0.327564 0.086820 0.189177 -0.020390 0.014401 0.132384 -0.124567 -0.164748 -0.082919 -0.035364 0.061129 0.046827 0.095540 0.173010 -0.037231 0.234697 0.144001 0.400485 0.704816 -0.492011 -0.099519 -0.060805 0.428226 0.114712 -0.419457 0.141160 -0.359565 -0.211012 0.269029 0.003410 0.482767 -0.187297 0.343010 0.317869 0.358285 -0.946967 0.045874 -0.456196 0.301191 -0.136584 0.068125 0.007911 0.103423 0.110643 0.140921 -0.405319 0.019772 0.097955 -0.191581 -0.038015 -0.351748 -0.123378 -0.061453 -0.093560 -0.165356 0.248876 0.547884 -0.279532 0.249343 0.415427 0.115388 -0.150453 0.089119 0.286061 0.337580 -0.313624 -0.413736 0.084549 -0.083880 0.100191 -0.008702 0.537011 -0.325804 0.151615 0.126596 0.214079 -0.045271 -0.240445 0.179773 -0.311607 0.185594 0.476728 0.133358 -0.387327 -0.079238 -0.003418 -0.132207 
its 0.031455 -0.428194 0.616385 0.047395 0.082007 -0.400138 -0.115944 -0.019235 0.032536 0.121320 -0.167195 0.226072 -0.254909 -0.026032 -0.123852 -0.074008 -0.053462 0.474852 0.203106 -0.136235 -0.104064 0.079486 0.329494 0.015896 0.070287 0.033519 -0.208350 0.325020 0.086432 0.076696 -0.089227 -0.484973 -0.329531 0.428601 0.258080 0.079106 -0.079343 -0.149320 0.029862 0.070267 -0.091223 0.188891 0.019269 -0.319706 0.310055 0.048837 -0.135797 -0.290285 0.357751 -0.563294 0.256273 0.144631 0.066206 0.035231 -0.234237 -0.363466 -0.043738 -0.048459 -0.089560 -0.296817 -0.002918 0.112363 0.139962 0.186492 -0.129339 0.063942 0.380330 -0.127419 -0.231302 -0.286097 0.008611 0.131932 -0.161365 -0.349606 -0.163349 -0.268060 -0.424422 0.258611 0.203641 0.130966 0.076165 0.225488 0.149365 0.075851 -0.311607 0.120119 0.069470 -0.101860 0.235923 -0.151290 0.229371 -0.029855 0.194024 0.145148 -0.012061 -0.178235 0.044539 -0.012935 0.039941 -0.168178 0.482019 -0.175716 -0.219327 0.139566 0.051085 0.393638 -0.127647 -0.186787 -0.051009 0.304805 0.089125 0.164432 -0.125121 -0.298159 0.080415 0.169746 -0.023510 0.015571 0.125134 -0.111269 -0.150678 -0.070719 -0.033529 0.056465 0.043546 0.088469 0.159798 -0.031821 0.215530 0.133782 0.366500 0.637843 -0.449103 -0.091183 -0.058823 0.386437 0.105059 -0.384038 0.126322 -0.324586 -0.194419 0.242511 0.000173 0.439066 -0.170047 0.317052 0.289709 0.324638 -0.858680 0.044866 -0.411464 0.276879 -0.124979 0.061287 0.003547 0.092305 0.104824 0.126292 -0.370208 0.020653 0.089727 -0.176106 -0.035611 -0.315919 -0.111980 -0.055931 -0.084375 -0.150556 0.229694 0.499994 -0.252355 0.225477 0.375349 0.102044 -0.134181 0.078773 0.257811 0.305806 -0.280629 -0.375767 0.076410 -0.071664 0.090961 -0.009552 0.489061 -0.294553 0.138782 0.115660 0.193474 -0.043807 -0.220484 0.162739 -0.284138 0.164057 0.433592 0.124160 -0.350059 -0.072648 0.000131 -0.120592 
alpha 0.036373 -0.446662 0.643242 0.050626 0.082201 -0.417657 -0.123690 -0.023030 0.030379 0.123440 -0.174793 0.233828 -0.267434 -0.021625 -0.126678 -0.076850 -0.053002 0.492023 0.213037 -0.137982 -0.105918 0.077590 0.347426 0.015889 0.076067 0.030257 -0.221740 0.342410 0.091204 0.080491 -0.092720 -0.504905 -0.346085 0.451310 0.268918 0.081490 -0.077495 -0.157230 0.027857 0.071074 -0.094694 0.194090 0.021240 -0.330847 0.322161 0.049230 -0.142414 -0.302771 0.377197 -0.589791 0.267520 0.147541 0.068619 0.034289 -0.241083 -0.383143 -0.045217 -0.050198 -0.090225 -0.313197 -0.003549 0.118415 0.143031 0.197228 -0.137141 0.066191 0.393846 -0.131302 -0.239872 -0.298074 0.006566 0.138109 -0.164601 -0.364624 -0.167308 -0.275357 -0.439626 0.275476 0.210900 0.140399 0.083297 0.238116 0.160408 0.082571 -0.325433 0.127843 0.071852 -0.106572 0.246429 -0.158157 0.238616 -0.029900 0.200557 0.153299 -0.013060 -0.187365 0.046079 -0.013415 0.043690 -0.173659 0.501801 -0.183909 -0.227056 0.149743 0.055558 0.410593 -0.135341 -0.198533 -0.056197 0.317742 0.093132 0.174792 -0.131840 -0.307435 0.085152 0.177692 -0.020066 0.015177 0.129225 -0.115985 -0.155867 -0.076694 -0.034057 0.061591 0.044894 0.088947 0.163883 -0.032793 0.226636 0.136876 0.377241 0.666000 -0.470645 -0.091908 -0.058574 0.405583 0.109425 -0.396464 0.132564 -0.335273 -0.198588 0.254772 0.002861 0.462114 -0.177823 0.329071 0.304163 0.342383 -0.897892 0.042967 -0.430636 0.285986 -0.129102 0.066261 0.006126 0.097741 0.107019 0.129571 -0.387736 0.021001 0.089185 -0.180431 -0.037667 -0.332475 -0.119283 -0.058143 -0.086213 -0.155843 0.236374 0.520388 -0.261270 0.237896 0.394395 0.107710 -0.141866 0.082939 0.269927 0.321113 -0.294119 -0.392771 0.082091 -0.075533 0.093272 -0.008395 0.508385 -0.305222 0.142652 0.122700 0.200700 -0.043354 -0.227228 0.172303 -0.294609 0.172585 0.456133 0.128671 -0.366307 -0.072952 -0.002752 -0.126654 
cells 0.031133 -0.444726 0.647091 0.048201 0.083476 -0.421250 -0.122295 -0.022176 0.030641 0.124672 -0.175791 0.236449 -0.268483 -0.024944 -0.130264 -0.078419 -0.051602 0.493120 0.212715 -0.136652 -0.109010 0.082106 0.348508 0.017063 0.073770 0.031954 -0.222744 0.343993 0.094056 0.077933 -0.091844 -0.514295 -0.345562 0.457051 0.272739 0.084374 -0.084423 -0.158100 0.029481 0.073176 -0.095509 0.195260 0.018560 -0.336024 0.327874 0.052273 -0.140892 -0.309002 0.382225 -0.598372 0.272812 0.150051 0.071036 0.039139 -0.246663 -0.385359 -0.047411 -0.053151 -0.090181 -0.317248 -0.005356 0.118023 0.146726 0.196683 -0.135375 0.066919 0.399499 -0.131841 -0.243357 -0.299810 0.007752 0.142908 -0.170319 -0.369346 -0.169711 -0.285129 -0.448263 0.278209 0.217331 0.136848 0.082858 0.238863 0.160076 0.084197 -0.329042 0.127041 0.071689 -0.109447 0.249515 -0.160068 0.242963 -0.034882 0.202793 0.150119 -0.011986 -0.190595 0.047826 -0.013026 0.040334 -0.179546 0.508286 -0.189011 -0.229616 0.151387 0.053792 0.419134 -0.136432 -0.202687 -0.055875 0.323936 0.092938 0.177732 -0.131733 -0.315108 0.087097 0.181692 -0.021106 0.015752 0.127385 -0.118016 -0.157112 -0.075890 -0.035657 0.061552 0.047791 0.094709 0.169247 -0.034515 0.228765 0.138027 0.386204 0.677286 -0.477993 -0.096625 -0.055282 0.411824 0.109924 -0.403052 0.137634 -0.345651 -0.199774 0.257526 -0.001494 0.468869 -0.181750 0.330465 0.303764 0.346513 -0.910021 0.044179 -0.438594 0.292805 -0.130769 0.065046 0.003389 0.100563 0.107873 0.134754 -0.389764 0.017654 0.093310 -0.185800 -0.039161 -0.337538 -0.118031 -0.055770 -0.092430 -0.158005 0.240105 0.529881 -0.267608 0.239634 0.398640 0.111866 -0.144596 0.086415 0.270313 0.326447 -0.301859 -0.399501 0.082204 -0.076230 0.091469 -0.005521 0.516930 -0.309729 0.145701 0.124033 0.203618 -0.043489 -0.232287 0.175331 -0.299797 0.177758 0.463441 0.132285 -0.369196 -0.075906 0.000807 -0.125284 
proteins 0.034151 -0.495364 0.711451 0.054446 0.093512 -0.464992 -0.134962 -0.022702 0.035056 0.140451 -0.191062 0.261299 -0.292845 -0.028348 -0.143091 -0.081607 -0.059977 0.548106 0.233575 -0.156902 -0.115831 0.088160 0.381733 0.017918 0.085395 0.036400 -0.245736 0.373697 0.104164 0.088447 -0.100200 -0.559540 -0.381185 0.497380 0.296426 0.091231 -0.089003 -0.173353 0.030620 0.078086 -0.103197 0.218293 0.019351 -0.367840 0.355335 0.057939 -0.155200 -0.331883 0.413712 -0.653558 0.293382 0.166852 0.076496 0.036913 -0.267047 -0.422653 -0.050965 -0.057011 -0.100436 -0.346287 -0.003912 0.128891 0.158942 0.216200 -0.151808 0.073657 0.434063 -0.143012 -0.266060 -0.330366 0.007507 0.154492 -0.183587 -0.403339 -0.189696 -0.305516 -0.486078 0.303969 0.237673 0.151374 0.087584 0.261165 0.176335 0.092047 -0.356332 0.138713 0.082350 -0.118103 0.271804 -0.174800 0.263791 -0.037038 0.223066 0.164696 -0.010952 -0.207657 0.049669 -0.011269 0.048504 -0.191518 0.555889 -0.201978 -0.251440 0.166771 0.060411 0.455309 -0.147062 -0.216052 -0.059496 0.354833 0.105836 0.188755 -0.145132 -0.339851 0.096452 0.193302 -0.023945 0.018266 0.142013 -0.129350 -0.174014 -0.084888 -0.038449 0.065792 0.052453 0.104514 0.182306 -0.037870 0.246563 0.153522 0.417713 0.737357 -0.517063 -0.103307 -0.061347 0.448207 0.118237 -0.442823 0.148717 -0.372483 -0.221850 0.283083 0.001471 0.506037 -0.197536 0.364747 0.331808 0.378649 -0.989737 0.048040 -0.474262 0.316130 -0.139070 0.074413 0.007538 0.109181 0.117853 0.146318 -0.422711 0.020860 0.099908 -0.200783 -0.041668 -0.363674 -0.127553 -0.061250 -0.096491 -0.173839 0.263636 0.578085 -0.291866 0.257705 0.435692 0.117964 -0.154917 0.093229 0.296645 0.356345 -0.325289 -0.433787 0.092046 -0.086394 0.103982 -0.010622 0.563648 -0.336149 0.157179 0.132691 0.221983 -0.052267 -0.249760 0.188116 -0.326491 0.189201 0.504229 0.142804 -0.405259 -0.079345 -0.001341 -0.141189 
as 0.037741 -0.534495 0.770515 0.062236 0.101602 -0.499553 -0.145904 -0.025194 0.039903 0.152152 -0.209088 0.282058 -0.317106 -0.029963 -0.156144 -0.088677 -0.062941 0.593473 0.252858 -0.164778 -0.128042 0.097000 0.414651 0.018024 0.092315 0.037541 -0.261599 0.406612 0.111762 0.096142 -0.108982 -0.602996 -0.408560 0.537406 0.322916 0.094882 -0.097210 -0.184639 0.037231 0.085692 -0.110679 0.232531 0.022972 -0.395582 0.386384 0.060350 -0.170085 -0.360727 0.448657 -0.705945 0.319569 0.178598 0.081560 0.042969 -0.289596 -0.456501 -0.059002 -0.061584 -0.110208 -0.369538 -0.003605 0.142815 0.170922 0.233760 -0.161374 0.078359 0.468468 -0.158198 -0.287647 -0.353464 0.009315 0.166993 -0.200785 -0.436335 -0.204677 -0.331994 -0.526927 0.324242 0.254866 0.164418 0.100287 0.286808 0.188498 0.097838 -0.387427 0.151998 0.084168 -0.126852 0.294904 -0.186740 0.286667 -0.038990 0.238101 0.178747 -0.013179 -0.221884 0.053669 -0.015803 0.050626 -0.210467 0.599601 -0.219286 -0.272202 0.176621 0.067414 0.493099 -0.159208 -0.233052 -0.064051 0.382319 0.111546 0.205349 -0.153313 -0.370336 0.102946 0.213628 -0.028862 0.016993 0.152495 -0.137793 -0.184484 -0.093428 -0.041083 0.069069 0.056305 0.110640 0.196834 -0.040543 0.269751 0.162756 0.453594 0.799261 -0.560483 -0.112177 -0.070959 0.482844 0.126805 -0.475167 0.157894 -0.404518 -0.237836 0.307519 -0.000441 0.547645 -0.212766 0.390714 0.358709 0.405685 -1.068677 0.055265 -0.516976 0.345300 -0.154249 0.080327 0.006159 0.118986 0.129729 0.155798 -0.458495 0.022723 0.109645 -0.217186 -0.048157 -0.398187 -0.140923 -0.066883 -0.104933 -0.188923 0.284754 0.624162 -0.313372 0.280882 0.469726 0.128581 -0.167690 0.097576 0.319202 0.380741 -0.354822 -0.470273 0.096282 -0.095068 0.111204 -0.012071 0.607857 -0.366905 0.167523 0.141374 0.238495 -0.055998 -0.270053 0.206969 -0.352918 0.205348 0.543402 0.156272 -0.435798 -0.086556 0.001297 -0.149655 
was 0.036623 -0.511100 0.738096 0.056318 0.099092 -0.481779 -0.140978 -0.022749 0.035658 0.141275 -0.202735 0.273100 -0.302853 -0.030251 -0.148343 -0.086100 -0.060596 0.567019 0.238313 -0.158020 -0.122767 0.095798 0.395942 0.019240 0.085829 0.035451 -0.250133 0.390826 0.108359 0.091172 -0.105818 -0.575995 -0.395988 0.512687 0.309112 0.090475 -0.094495 -0.176554 0.032676 0.081517 -0.110996 0.223621 0.020228 -0.382016 0.370946 0.056270 -0.158860 -0.344924 0.429742 -0.676729 0.307037 0.168959 0.080766 0.041827 -0.277756 -0.438217 -0.055106 -0.059581 -0.104610 -0.359658 -0.006926 0.137428 0.165197 0.220668 -0.152359 0.074472 0.452853 -0.149189 -0.276020 -0.340857 0.008050 0.158877 -0.193305 -0.418925 -0.194881 -0.321212 -0.505136 0.309905 0.245900 0.154459 0.090154 0.271122 0.178651 0.093911 -0.370944 0.144025 0.081077 -0.124121 0.281333 -0.182422 0.271852 -0.035495 0.229897 0.172248 -0.013137 -0.214078 0.055146 -0.013651 0.045290 -0.196442 0.576663 -0.208665 -0.256477 0.170829 0.061499 0.470628 -0.149881 -0.225889 -0.062366 0.367173 0.106557 0.200060 -0.144549 -0.351407 0.095753 0.202473 -0.026488 0.018221 0.147576 -0.130177 -0.180268 -0.087241 -0.040577 0.065917 0.053465 0.101869 0.190454 -0.038247 0.256824 0.160252 0.434645 0.762437 -0.537701 -0.108175 -0.063372 0.463798 0.122461 -0.458532 0.153921 -0.386741 -0.230257 0.290680 0.001322 0.528314 -0.200862 0.375315 0.345603 0.388188 -1.026603 0.052163 -0.494538 0.331334 -0.147287 0.073070 0.005825 0.113816 0.122471 0.149657 -0.440291 0.021980 0.103835 -0.207930 -0.047220 -0.382554 -0.134373 -0.067566 -0.101137 -0.183268 0.271252 0.595424 -0.301542 0.271386 0.448758 0.123229 -0.161332 0.092917 0.309382 0.366299 -0.339663 -0.449866 0.092175 -0.088766 0.106425 -0.007163 0.585704 -0.351706 0.162342 0.135263 0.232886 -0.052092 -0.262574 0.194586 -0.338986 0.197958 0.519482 0.146580 -0.419187 -0.082673 -0.000781 -0.142134 
A 0.030739 -0.421100 0.611033 0.048664 0.077690 -0.397108 -0.113717 -0.018065 0.032171 0.120651 -0.163344 0.225786 -0.253891 -0.023176 -0.121433 -0.073649 -0.052738 0.469570 0.199939 -0.131650 -0.102543 0.076725 0.329178 0.018109 0.070754 0.032353 -0.209925 0.322157 0.089185 0.075216 -0.087668 -0.482117 -0.322109 0.425139 0.251984 0.075267 -0.078005 -0.149000 0.026287 0.068963 -0.086642 0.185832 0.014730 -0.314362 0.307188 0.049455 -0.132398 -0.288510 0.356425 -0.563146 0.253874 0.143763 0.064673 0.033276 -0.228159 -0.359171 -0.044695 -0.050466 -0.085867 -0.296009 -0.004729 0.110239 0.136218 0.181226 -0.129044 0.060736 0.371821 -0.121975 -0.228019 -0.279659 0.009383 0.135338 -0.160915 -0.345449 -0.160906 -0.261185 -0.417078 0.257108 0.198421 0.127432 0.078595 0.227181 0.147557 0.077166 -0.302666 0.123501 0.065630 -0.101753 0.234481 -0.149001 0.225031 -0.031199 0.188963 0.139191 -0.012730 -0.179628 0.046551 -0.012549 0.036176 -0.167954 0.479420 -0.175035 -0.213336 0.139890 0.052533 0.392609 -0.122342 -0.185671 -0.054239 0.303756 0.090056 0.163992 -0.124435 -0.293873 0.079765 0.166325 -0.020251 0.013715 0.125473 -0.112789 -0.147466 -0.075412 -0.029834 0.055988 0.039469 0.085410 0.157152 -0.030840 0.211644 0.129566 0.362620 0.630398 -0.445146 -0.087448 -0.056741 0.383006 0.103120 -0.379440 0.128047 -0.322371 -0.189226 0.242955 0.002993 0.434911 -0.166103 0.309973 0.283708 0.320101 -0.848051 0.040967 -0.410724 0.269268 -0.124073 0.064436 0.003098 0.091191 0.103380 0.124154 -0.364654 0.017297 0.088064 -0.171080 -0.035027 -0.318489 -0.110705 -0.052687 -0.085860 -0.150683 0.225071 0.493545 -0.252513 0.224678 0.374888 0.101381 -0.132360 0.078182 0.253621 0.302256 -0.281298 -0.374601 0.077258 -0.074349 0.085793 -0.009017 0.483197 -0.290988 0.136618 0.111335 0.194053 -0.045056 -0.217818 0.164011 -0.279757 0.164741 0.427186 0.118887 -0.349216 -0.068306 -0.005097 -0.115028 
phosphorylation 0.019237 -0.279676 0.403818 0.029702 0.051362 -0.259335 -0.074689 -0.012562 0.018457 0.078970 -0.111610 0.145276 -0.165982 -0.015945 -0.080161 -0.049736 -0.031296 0.310358 0.132447 -0.088124 -0.065214 0.050763 0.214394 0.009188 0.044656 0.021523 -0.138137 0.210984 0.058920 0.047877 -0.057855 -0.312999 -0.212090 0.277315 0.166647 0.049091 -0.049242 -0.097568 0.019057 0.042297 -0.057875 0.119360 0.011543 -0.208807 0.201210 0.033474 -0.087632 -0.185478 0.233611 -0.369667 0.166076 0.094328 0.045315 0.024477 -0.149224 -0.239917 -0.028346 -0.029560 -0.054950 -0.196156 -0.004212 0.075116 0.087417 0.122408 -0.085451 0.041002 0.244303 -0.082339 -0.150312 -0.184915 0.002427 0.083869 -0.103644 -0.224599 -0.106560 -0.174278 -0.274062 0.167990 0.130432 0.082804 0.052873 0.151099 0.099943 0.052447 -0.204054 0.076611 0.043073 -0.069121 0.154569 -0.095274 0.145365 -0.022146 0.125841 0.091670 -0.006955 -0.118219 0.030776 -0.010102 0.023331 -0.105532 0.309405 -0.114273 -0.143275 0.091219 0.034267 0.254195 -0.080515 -0.119687 -0.032093 0.199745 0.056577 0.108698 -0.079440 -0.191066 0.054681 0.111918 -0.014661 0.012431 0.081432 -0.072050 -0.096814 -0.047586 -0.019524 0.035298 0.027373 0.056221 0.101366 -0.018476 0.139376 0.084230 0.235086 0.415118 -0.289856 -0.058911 -0.035480 0.254296 0.066167 -0.248640 0.085502 -0.208740 -0.126049 0.159184 0.002248 0.287426 -0.111800 0.203103 0.186353 0.211488 -0.556744 0.029271 -0.269852 0.177906 -0.080005 0.038654 0.001765 0.063896 0.066237 0.080714 -0.238315 0.008625 0.054798 -0.114588 -0.022434 -0.204733 -0.074002 -0.037359 -0.054225 -0.097433 0.146360 0.322707 -0.162784 0.144625 0.242860 0.068654 -0.089706 0.054088 0.169716 0.200344 -0.185413 -0.246134 0.052465 -0.049052 0.054662 -0.006838 0.317678 -0.190090 0.085758 0.075481 0.123355 -0.030149 -0.140368 0.106347 -0.181528 0.107199 0.280447 0.079832 -0.228467 -0.045700 -0.001110 -0.075348 
domain 0.050139 -0.700897 1.010570 0.078077 0.131552 -0.655710 -0.188705 -0.032039 0.052539 0.194691 -0.272481 0.368979 -0.419163 -0.036641 -0.202144 -0.117171 -0.083523 0.775526 0.328405 -0.215250 -0.166888 0.128538 0.542213 0.024320 0.119029 0.052294 -0.346812 0.530510 0.143055 0.123726 -0.143826 -0.791402 -0.537366 0.703084 0.420276 0.126774 -0.129623 -0.242242 0.044800 0.111929 -0.146781 0.302345 0.031435 -0.518230 0.505940 0.081003 -0.220455 -0.474800 0.589804 -0.922468 0.417703 0.233607 0.111451 0.054146 -0.379553 -0.598995 -0.073758 -0.082016 -0.142141 -0.488568 -0.010132 0.183085 0.223643 0.302981 -0.210715 0.098081 0.617119 -0.205304 -0.376790 -0.467406 0.010305 0.218319 -0.260536 -0.565710 -0.265126 -0.435370 -0.691671 0.429069 0.331072 0.211898 0.129269 0.372206 0.244033 0.126683 -0.505253 0.198494 0.111472 -0.168737 0.385580 -0.244912 0.370254 -0.048799 0.311253 0.237738 -0.015759 -0.295700 0.074605 -0.022197 0.063575 -0.273768 0.783331 -0.289917 -0.353668 0.233773 0.087827 0.645466 -0.205958 -0.307555 -0.084202 0.502293 0.143548 0.269901 -0.203997 -0.485323 0.133231 0.277361 -0.032066 0.023747 0.200527 -0.178455 -0.245695 -0.119683 -0.051225 0.091169 0.068343 0.143579 0.258450 -0.051310 0.354553 0.214322 0.591519 1.044945 -0.732069 -0.147187 -0.089275 0.635148 0.167546 -0.625193 0.209776 -0.527957 -0.313031 0.399742 0.004687 0.717600 -0.278030 0.513721 0.473812 0.533683 -1.402694 0.068948 -0.674354 0.452500 -0.200653 0.102451 0.005105 0.154563 0.168633 0.203476 -0.605863 0.028742 0.142303 -0.286802 -0.063431 -0.520755 -0.186236 -0.086777 -0.138473 -0.245063 0.371385 0.815915 -0.412626 0.368719 0.615357 0.173509 -0.221676 0.127390 0.421471 0.500566 -0.465626 -0.615478 0.125800 -0.118976 0.145893 -0.015022 0.799651 -0.480280 0.224649 0.189403 0.315079 -0.070776 -0.358429 0.269377 -0.459889 0.273803 0.711890 0.200884 -0.574291 -0.115950 -0.000154 -0.197882 
In 0.031092 -0.403461 0.586467 0.044909 0.076888 -0.380049 -0.112867 -0.019685 0.028290 0.116042 -0.161182 0.215148 -0.241566 -0.022705 -0.115553 -0.067786 -0.046286 0.449754 0.191646 -0.126574 -0.096407 0.075015 0.314602 0.017771 0.066854 0.028098 -0.197391 0.305835 0.085056 0.072020 -0.084514 -0.455305 -0.312682 0.406634 0.243120 0.075548 -0.073627 -0.141091 0.025707 0.066950 -0.083971 0.177173 0.016556 -0.303095 0.293597 0.046984 -0.128787 -0.273600 0.338851 -0.531447 0.241781 0.133608 0.061444 0.033830 -0.217263 -0.344273 -0.042115 -0.046221 -0.082661 -0.283171 -0.003266 0.104811 0.129820 0.177105 -0.122473 0.057093 0.356064 -0.119521 -0.218957 -0.270395 0.006000 0.126292 -0.152581 -0.328315 -0.154875 -0.251034 -0.400149 0.248363 0.191621 0.124309 0.073633 0.212934 0.139685 0.074366 -0.292194 0.115380 0.065872 -0.096589 0.222558 -0.140679 0.214833 -0.028596 0.180853 0.133325 -0.010608 -0.172121 0.044035 -0.010249 0.035591 -0.156935 0.452421 -0.163931 -0.202409 0.135423 0.052046 0.370690 -0.117747 -0.176505 -0.048068 0.291028 0.086695 0.154290 -0.114230 -0.281251 0.079422 0.158743 -0.021886 0.012829 0.118115 -0.102063 -0.139224 -0.069086 -0.031588 0.051555 0.040422 0.084551 0.150676 -0.028964 0.201270 0.122837 0.343382 0.603114 -0.425086 -0.084530 -0.049434 0.365665 0.097764 -0.361087 0.123288 -0.308601 -0.181875 0.230675 -0.000664 0.417993 -0.160703 0.298228 0.272604 0.304933 -0.808576 0.041664 -0.388379 0.261091 -0.115248 0.058287 0.005815 0.088193 0.098326 0.119059 -0.346577 0.017753 0.082874 -0.165983 -0.037361 -0.301819 -0.108205 -0.050096 -0.079820 -0.145321 0.213309 0.471494 -0.236346 0.213620 0.356281 0.096142 -0.124237 0.072975 0.244865 0.288068 -0.268072 -0.357220 0.071898 -0.068132 0.081780 -0.008144 0.461523 -0.274746 0.129558 0.108747 0.182911 -0.038959 -0.206346 0.157564 -0.268269 0.156353 0.410515 0.114775 -0.331409 -0.064526 0.000350 -0.114471 
we 0.041408 -0.589322 0.854517 0.066119 0.110950 -0.554090 -0.161883 -0.026621 0.042395 0.167952 -0.234209 0.314552 -0.351259 -0.029858 -0.172023 -0.098221 -0.072227 0.652361 0.275235 -0.186419 -0.141493 0.106425 0.458308 0.023456 0.101394 0.040155 -0.291619 0.448237 0.122806 0.105338 -0.121817 -0.668338 -0.450641 0.591944 0.355648 0.109291 -0.108929 -0.205115 0.035979 0.093876 -0.126062 0.254405 0.022620 -0.438706 0.426565 0.067758 -0.183993 -0.400709 0.495802 -0.780627 0.350981 0.200059 0.089989 0.047185 -0.322303 -0.503882 -0.062811 -0.066973 -0.118548 -0.409500 -0.004952 0.157551 0.191680 0.256279 -0.176125 0.087280 0.523505 -0.174770 -0.317376 -0.392553 0.010068 0.183534 -0.219495 -0.483437 -0.221459 -0.366572 -0.584261 0.359732 0.282750 0.178293 0.105699 0.313914 0.209085 0.106111 -0.429896 0.166812 0.094503 -0.140592 0.324493 -0.208581 0.314129 -0.040965 0.263041 0.197661 -0.013286 -0.250091 0.064178 -0.019983 0.056697 -0.230517 0.664329 -0.243789 -0.298582 0.196340 0.073948 0.547313 -0.176753 -0.261424 -0.072639 0.425101 0.122844 0.227550 -0.172514 -0.410626 0.115390 0.236284 -0.028506 0.023095 0.169058 -0.154718 -0.205662 -0.103042 -0.046859 0.078707 0.058324 0.121743 0.215794 -0.044685 0.299195 0.180843 0.501412 0.880400 -0.618255 -0.120978 -0.077320 0.534035 0.141863 -0.526646 0.173235 -0.445682 -0.265978 0.336235 0.002225 0.609330 -0.235318 0.434136 0.400516 0.448733 -1.186477 0.059054 -0.568717 0.383495 -0.168913 0.085915 0.006292 0.130362 0.144372 0.175230 -0.512370 0.023337 0.118956 -0.242461 -0.052843 -0.440938 -0.156757 -0.076491 -0.117705 -0.210206 0.311169 0.692101 -0.346643 0.309312 0.515792 0.144144 -0.185466 0.111001 0.355073 0.420125 -0.388522 -0.518674 0.107357 -0.102448 0.122757 -0.012268 0.676168 -0.406428 0.186516 0.160370 0.264306 -0.057568 -0.299850 0.225378 -0.390711 0.228500 0.602985 0.172131 -0.482812 -0.097982 -0.001979 -0.163295 
interact 0.033255 -0.480847 0.695492 0.053567 0.088238 -0.451486 -0.130152 -0.020347 0.035875 0.135165 -0.186516 0.254680 -0.289442 -0.025315 -0.141180 -0.081100 -0.056334 0.535308 0.224528 -0.148203 -0.113776 0.088006 0.375812 0.017799 0.082454 0.035616 -0.234508 0.367898 0.100119 0.084503 -0.099975 -0.545991 -0.370537 0.482920 0.291280 0.086393 -0.090336 -0.169700 0.033174 0.076229 -0.098631 0.208281 0.018849 -0.360316 0.348621 0.056009 -0.153600 -0.326742 0.406498 -0.635066 0.284475 0.159278 0.075235 0.038024 -0.260920 -0.413361 -0.048861 -0.057116 -0.096183 -0.334758 -0.004663 0.127046 0.153781 0.207175 -0.146334 0.067862 0.421623 -0.144329 -0.261409 -0.319310 0.006422 0.152985 -0.180875 -0.392701 -0.184375 -0.301807 -0.476456 0.293341 0.230376 0.147008 0.089080 0.256884 0.169306 0.089548 -0.349727 0.139307 0.079008 -0.112495 0.263974 -0.168673 0.258106 -0.036410 0.217372 0.159315 -0.011952 -0.202394 0.050457 -0.011578 0.045186 -0.186627 0.540718 -0.200688 -0.245234 0.158284 0.060904 0.446938 -0.141196 -0.211052 -0.061216 0.342615 0.102887 0.187986 -0.141980 -0.330516 0.092573 0.192817 -0.021624 0.014588 0.139379 -0.125538 -0.168105 -0.082720 -0.035135 0.061860 0.046466 0.098956 0.177685 -0.034693 0.241266 0.147616 0.411490 0.715315 -0.503792 -0.101207 -0.060602 0.436307 0.113865 -0.431034 0.146126 -0.366776 -0.212672 0.275220 0.001541 0.495614 -0.192740 0.354568 0.327782 0.364283 -0.962114 0.047375 -0.466189 0.310588 -0.141316 0.070522 0.003866 0.107754 0.117009 0.143748 -0.417142 0.022154 0.100826 -0.194400 -0.040611 -0.358856 -0.129683 -0.062855 -0.097615 -0.171536 0.256278 0.561866 -0.282585 0.252693 0.423445 0.118221 -0.148676 0.089889 0.289246 0.342764 -0.321787 -0.421812 0.087888 -0.085095 0.103098 -0.007779 0.550800 -0.332181 0.151632 0.128593 0.217136 -0.051676 -0.246848 0.187095 -0.318728 0.189046 0.486842 0.138239 -0.394528 -0.082191 0.000106 -0.136707 
human 0.044282 -0.622861 0.904121 0.069517 0.118349 -0.583771 -0.168649 -0.026078 0.047525 0.173153 -0.243754 0.332889 -0.372658 -0.033147 -0.180732 -0.104312 -0.075598 0.692622 0.294379 -0.195218 -0.152824 0.116069 0.486304 0.022620 0.106609 0.047165 -0.304869 0.477506 0.131775 0.109460 -0.130904 -0.707037 -0.477756 0.629068 0.376274 0.112936 -0.112430 -0.216108 0.039281 0.101125 -0.132841 0.271373 0.027897 -0.466178 0.451165 0.070251 -0.196234 -0.423561 0.522678 -0.823434 0.373711 0.210632 0.099127 0.050757 -0.341992 -0.534589 -0.069056 -0.070918 -0.127432 -0.433154 -0.007720 0.163444 0.202634 0.269212 -0.187797 0.089629 0.553345 -0.185079 -0.336113 -0.416590 0.008490 0.194592 -0.232666 -0.507610 -0.236833 -0.389303 -0.616139 0.382968 0.295487 0.193623 0.114716 0.329655 0.219556 0.113524 -0.454399 0.176359 0.101858 -0.151130 0.345557 -0.220442 0.331789 -0.046409 0.277174 0.209317 -0.016164 -0.260204 0.065574 -0.016536 0.059760 -0.242088 0.702676 -0.256315 -0.313493 0.208851 0.077750 0.576269 -0.183327 -0.275289 -0.074666 0.448656 0.129218 0.239801 -0.179910 -0.429472 0.120688 0.246540 -0.028506 0.021892 0.177730 -0.160690 -0.221315 -0.106453 -0.049643 0.082283 0.062965 0.127188 0.229273 -0.049335 0.312479 0.191110 0.530901 0.930003 -0.652588 -0.127678 -0.078826 0.565149 0.152765 -0.557712 0.188130 -0.473419 -0.276280 0.358682 -0.000676 0.642679 -0.248186 0.459165 0.420704 0.474692 -1.249796 0.063811 -0.604585 0.402833 -0.178500 0.093876 0.005575 0.138038 0.149772 0.182147 -0.536476 0.027245 0.125379 -0.255307 -0.054978 -0.466476 -0.167647 -0.076737 -0.123217 -0.223068 0.331217 0.731887 -0.367579 0.326208 0.545837 0.152507 -0.196299 0.114658 0.374278 0.445039 -0.412656 -0.552743 0.113088 -0.107720 0.130120 -0.011135 0.712887 -0.425535 0.201426 0.168911 0.278567 -0.061411 -0.315671 0.240893 -0.413748 0.241943 0.632652 0.179059 -0.511532 -0.101384 0.002099 -0.174107 
- 0.039860 -0.547326 0.788646 0.061913 0.101458 -0.513664 -0.149569 -0.026315 0.038884 0.154427 -0.213527 0.292112 -0.328107 -0.028971 -0.156733 -0.091299 -0.067013 0.607709 0.255284 -0.172598 -0.130098 0.098681 0.425302 0.022966 0.090923 0.038008 -0.270917 0.418463 0.115291 0.095923 -0.110809 -0.616405 -0.421854 0.550387 0.330680 0.096364 -0.097690 -0.189409 0.037190 0.088788 -0.116222 0.239650 0.020171 -0.408339 0.393216 0.058840 -0.173892 -0.370122 0.458523 -0.723970 0.324546 0.184187 0.087347 0.044344 -0.295588 -0.467852 -0.059446 -0.062551 -0.109112 -0.379806 -0.007738 0.143666 0.172939 0.239355 -0.167219 0.080390 0.484592 -0.161293 -0.296308 -0.362033 0.010376 0.169667 -0.203999 -0.443308 -0.210359 -0.340357 -0.542269 0.334022 0.259319 0.167138 0.101626 0.292511 0.192697 0.102983 -0.394632 0.157354 0.088252 -0.132945 0.301113 -0.193544 0.289666 -0.037409 0.245767 0.183123 -0.011769 -0.229151 0.060023 -0.016771 0.049974 -0.214386 0.614533 -0.223870 -0.277793 0.180375 0.069738 0.505397 -0.161701 -0.239986 -0.067975 0.393323 0.116969 0.213013 -0.156451 -0.380840 0.103915 0.215628 -0.025694 0.020805 0.159536 -0.142561 -0.192022 -0.094584 -0.043777 0.071506 0.053101 0.111330 0.201818 -0.041885 0.278054 0.167401 0.467252 0.814550 -0.574628 -0.113348 -0.070886 0.495090 0.133770 -0.488679 0.165434 -0.413594 -0.246048 0.314457 0.000858 0.561724 -0.215054 0.399183 0.370928 0.413385 -1.092867 0.054973 -0.526340 0.354524 -0.155730 0.079721 0.006484 0.119712 0.133342 0.161163 -0.471843 0.020652 0.114084 -0.222094 -0.046541 -0.406338 -0.142755 -0.070689 -0.110526 -0.196149 0.287809 0.639865 -0.321552 0.284784 0.478192 0.133617 -0.173390 0.100884 0.325731 0.387552 -0.364473 -0.484169 0.097520 -0.098014 0.112896 -0.010902 0.622381 -0.375600 0.175352 0.145470 0.245721 -0.057079 -0.281737 0.208370 -0.363168 0.210605 0.553894 0.156231 -0.447324 -0.089305 -0.000769 -0.150251 
are 0.040366 -0.546942 0.796730 0.062586 0.103730 -0.517925 -0.150351 -0.025471 0.038723 0.156215 -0.215795 0.290662 -0.329879 -0.030505 -0.158350 -0.093285 -0.064395 0.612332 0.257106 -0.171553 -0.135211 0.101973 0.425502 0.021136 0.091235 0.037262 -0.269899 0.418382 0.113243 0.093278 -0.114188 -0.624844 -0.424470 0.552352 0.331936 0.102941 -0.098259 -0.190574 0.034563 0.087401 -0.117656 0.237454 0.025514 -0.412430 0.398886 0.062769 -0.175835 -0.369627 0.462104 -0.728216 0.326565 0.184374 0.088736 0.042240 -0.302541 -0.471832 -0.059670 -0.065723 -0.112585 -0.381967 -0.008377 0.143875 0.178370 0.241687 -0.166492 0.081844 0.488073 -0.164047 -0.300614 -0.368008 0.012285 0.173502 -0.205565 -0.447936 -0.208899 -0.340789 -0.542309 0.336687 0.261365 0.168508 0.100085 0.294010 0.196677 0.100301 -0.398486 0.155609 0.087402 -0.133739 0.306531 -0.191003 0.293186 -0.040733 0.249979 0.183213 -0.014344 -0.230931 0.055343 -0.015792 0.052941 -0.212602 0.618538 -0.228133 -0.281267 0.181840 0.071353 0.509742 -0.166486 -0.243990 -0.067864 0.393768 0.117082 0.214688 -0.160570 -0.380440 0.103565 0.220132 -0.025968 0.019617 0.156856 -0.141981 -0.196228 -0.095299 -0.043838 0.069800 0.056606 0.114839 0.201239 -0.040291 0.277875 0.167689 0.468488 0.823693 -0.576151 -0.117190 -0.069592 0.500181 0.131572 -0.491023 0.167157 -0.415141 -0.244038 0.311226 -0.000688 0.568528 -0.218033 0.404072 0.374036 0.417521 -1.102540 0.053588 -0.530007 0.353738 -0.157568 0.082300 0.005633 0.122001 0.134990 0.161385 -0.477813 0.020881 0.111235 -0.225435 -0.047230 -0.410755 -0.147757 -0.068412 -0.106645 -0.196085 0.293146 0.643471 -0.324185 0.290439 0.482074 0.133949 -0.175778 0.103268 0.330594 0.392780 -0.366870 -0.484994 0.101357 -0.094444 0.115113 -0.012923 0.627961 -0.374626 0.173175 0.150692 0.249504 -0.054630 -0.279085 0.214726 -0.365373 0.215183 0.558795 0.161932 -0.448258 -0.091796 0.000750 -0.153331 
which 0.037784 -0.538883 0.777172 0.061902 0.102725 -0.503501 -0.145573 -0.024239 0.038296 0.153787 -0.212678 0.286171 -0.319825 -0.030910 -0.157622 -0.091769 -0.064424 0.597448 0.251696 -0.166198 -0.133043 0.099024 0.414008 0.018415 0.087390 0.038773 -0.265770 0.411743 0.111178 0.095499 -0.112582 -0.607435 -0.411823 0.540864 0.321331 0.097396 -0.097360 -0.187001 0.033455 0.088114 -0.116488 0.233075 0.023087 -0.401159 0.391040 0.060863 -0.169668 -0.367092 0.451231 -0.710240 0.320715 0.182684 0.082452 0.044175 -0.291207 -0.459019 -0.054975 -0.063529 -0.111165 -0.376307 -0.007238 0.145069 0.176085 0.235972 -0.162267 0.079591 0.474041 -0.160603 -0.291276 -0.357253 0.011239 0.166898 -0.203572 -0.438982 -0.202891 -0.336770 -0.532939 0.329052 0.259015 0.166383 0.099109 0.286109 0.191270 0.098341 -0.391266 0.154139 0.084484 -0.130350 0.298433 -0.186940 0.285639 -0.037195 0.244177 0.182122 -0.013837 -0.226085 0.055185 -0.015699 0.052490 -0.209036 0.607527 -0.222863 -0.274425 0.177428 0.064698 0.496246 -0.161168 -0.237646 -0.063920 0.385434 0.110333 0.206713 -0.155640 -0.371628 0.104851 0.213508 -0.026066 0.017110 0.157927 -0.141287 -0.187987 -0.094278 -0.042403 0.070429 0.054829 0.110542 0.198555 -0.042793 0.271388 0.165858 0.455992 0.804809 -0.562731 -0.110059 -0.067403 0.487597 0.127394 -0.481673 0.160951 -0.405505 -0.239372 0.306064 -0.002292 0.554010 -0.214194 0.397621 0.363130 0.408051 -1.081419 0.054597 -0.518865 0.347718 -0.153657 0.078143 0.007963 0.121089 0.131134 0.156384 -0.467448 0.024177 0.112125 -0.222064 -0.050030 -0.399095 -0.141223 -0.070570 -0.104023 -0.189379 0.283687 0.629950 -0.317875 0.285879 0.471781 0.131366 -0.170165 0.099477 0.321186 0.386994 -0.357547 -0.471753 0.098039 -0.093502 0.111097 -0.010825 0.618511 -0.369527 0.172853 0.142917 0.242303 -0.053977 -0.277195 0.207852 -0.354876 0.210817 0.547269 0.157478 -0.438831 -0.090682 0.000976 -0.148130 
results 0.040322 -0.569804 0.822316 0.065052 0.107896 -0.536078 -0.156549 -0.025325 0.039334 0.161463 -0.225389 0.301711 -0.341922 -0.030089 -0.161763 -0.098755 -0.069953 0.629069 0.266125 -0.179953 -0.137281 0.105809 0.444042 0.018684 0.097406 0.041860 -0.280528 0.431467 0.119664 0.097950 -0.118490 -0.642377 -0.436514 0.571554 0.341415 0.103282 -0.104483 -0.199479 0.038304 0.089069 -0.122825 0.246859 0.022675 -0.422126 0.412045 0.064127 -0.181118 -0.385384 0.478889 -0.750278 0.339073 0.188594 0.089600 0.048393 -0.311155 -0.485180 -0.060101 -0.063768 -0.112944 -0.393860 -0.004665 0.152925 0.179921 0.246538 -0.170635 0.082809 0.502084 -0.169744 -0.304291 -0.379562 0.010987 0.178766 -0.214406 -0.466068 -0.217968 -0.353214 -0.564097 0.346110 0.272431 0.170863 0.104657 0.301594 0.198777 0.105286 -0.411489 0.163746 0.093951 -0.136623 0.315799 -0.197032 0.300035 -0.038735 0.256018 0.190176 -0.014728 -0.236846 0.057578 -0.017427 0.053710 -0.222506 0.639695 -0.231628 -0.287970 0.191229 0.070030 0.524219 -0.168457 -0.248892 -0.066740 0.407791 0.116487 0.223415 -0.165837 -0.394032 0.109521 0.225281 -0.031420 0.020863 0.163519 -0.145377 -0.198246 -0.097934 -0.041977 0.073251 0.054411 0.118032 0.210054 -0.045002 0.286232 0.178171 0.484119 0.849495 -0.598013 -0.118150 -0.073112 0.515273 0.136750 -0.508006 0.170192 -0.431475 -0.253166 0.328011 0.002154 0.585149 -0.226076 0.417813 0.383380 0.432885 -1.141539 0.059086 -0.550132 0.365734 -0.166414 0.081320 0.008853 0.128712 0.137111 0.165197 -0.492965 0.023827 0.114068 -0.232020 -0.050035 -0.423768 -0.153337 -0.069943 -0.113662 -0.199459 0.302181 0.663315 -0.331321 0.302272 0.498906 0.136855 -0.179816 0.107227 0.339049 0.406602 -0.375568 -0.498804 0.104424 -0.100757 0.120101 -0.011421 0.648142 -0.390166 0.181755 0.154493 0.256051 -0.060110 -0.290551 0.216198 -0.375510 0.223154 0.576334 0.163391 -0.464308 -0.096098 -0.000044 -0.155646 
activity 0.042156 -0.539585 0.776201 0.059734 0.099596 -0.501978 -0.148536 -0.024555 0.040022 0.149422 -0.210641 0.285506 -0.319575 -0.030322 -0.152421 -0.091718 -0.063890 0.597296 0.250321 -0.169983 -0.132692 0.099575 0.415218 0.018382 0.089691 0.041019 -0.265690 0.411022 0.113700 0.091571 -0.110113 -0.609671 -0.415136 0.542410 0.324492 0.097399 -0.099468 -0.186066 0.036295 0.088374 -0.114845 0.234672 0.021575 -0.400595 0.388192 0.059317 -0.168639 -0.362969 0.450763 -0.711812 0.323579 0.180767 0.084485 0.042864 -0.292832 -0.459890 -0.055817 -0.061349 -0.111165 -0.375022 -0.005212 0.145209 0.169656 0.236806 -0.161140 0.080136 0.476525 -0.158220 -0.291752 -0.359614 0.010297 0.165974 -0.199170 -0.436115 -0.205839 -0.333752 -0.529273 0.330960 0.258833 0.165154 0.097363 0.284864 0.189389 0.098907 -0.394122 0.155570 0.084671 -0.131352 0.296975 -0.189567 0.285616 -0.038980 0.242746 0.180806 -0.016034 -0.224490 0.054937 -0.017562 0.049811 -0.210510 0.603491 -0.221686 -0.273081 0.181057 0.067604 0.494774 -0.158127 -0.236449 -0.065203 0.385327 0.112486 0.209195 -0.153338 -0.370793 0.103231 0.215299 -0.026025 0.016502 0.155278 -0.136978 -0.190678 -0.090250 -0.041374 0.072663 0.056006 0.112242 0.198875 -0.042427 0.272335 0.164486 0.460267 0.800975 -0.565405 -0.111203 -0.069304 0.485411 0.129392 -0.483417 0.159591 -0.408360 -0.242239 0.309441 0.003827 0.551646 -0.213476 0.393865 0.361435 0.408333 -1.079291 0.053128 -0.519144 0.345414 -0.157105 0.077992 0.008406 0.119100 0.128068 0.156594 -0.463653 0.023644 0.109184 -0.217644 -0.045064 -0.401076 -0.142447 -0.068067 -0.107121 -0.190579 0.284093 0.630422 -0.313923 0.284137 0.473558 0.129362 -0.167034 0.101951 0.321939 0.383806 -0.358010 -0.476696 0.095476 -0.096157 0.109783 -0.008607 0.612857 -0.368642 0.174729 0.143725 0.241023 -0.056048 -0.275519 0.207582 -0.357926 0.209368 0.547185 0.157047 -0.438938 -0.089741 0.000744 -0.152052 
complex 0.033492 -0.477591 0.689481 0.051077 0.089841 -0.450523 -0.130744 -0.019335 0.037230 0.133867 -0.185278 0.252261 -0.284317 -0.024739 -0.139684 -0.079949 -0.059580 0.529644 0.225142 -0.147991 -0.115157 0.084387 0.371202 0.020568 0.082271 0.037815 -0.236466 0.364155 0.096361 0.080608 -0.097619 -0.542431 -0.368038 0.481451 0.284876 0.085091 -0.087207 -0.164430 0.029748 0.075956 -0.100498 0.206488 0.018309 -0.354291 0.345930 0.052578 -0.149014 -0.321955 0.400282 -0.632588 0.286167 0.157303 0.076880 0.040497 -0.260314 -0.408819 -0.050241 -0.056526 -0.095252 -0.331396 -0.006449 0.126188 0.151311 0.207968 -0.144530 0.071307 0.421676 -0.142257 -0.258600 -0.317791 0.009915 0.152046 -0.178702 -0.386404 -0.183882 -0.297393 -0.471353 0.291399 0.225770 0.144108 0.084550 0.256039 0.168485 0.088982 -0.347953 0.135531 0.078543 -0.116417 0.263093 -0.168902 0.255990 -0.036315 0.216085 0.161164 -0.014000 -0.202928 0.049862 -0.012267 0.043917 -0.183258 0.535713 -0.195424 -0.243834 0.161110 0.059215 0.440161 -0.142841 -0.209485 -0.057755 0.342798 0.102129 0.182828 -0.139539 -0.332199 0.093748 0.188083 -0.022654 0.017766 0.139360 -0.124977 -0.169818 -0.084337 -0.036443 0.064399 0.047104 0.098219 0.176484 -0.038016 0.240348 0.148450 0.403951 0.713314 -0.502648 -0.101502 -0.059847 0.432128 0.113789 -0.425739 0.142674 -0.359878 -0.213406 0.273453 -0.000744 0.490195 -0.189487 0.350599 0.323219 0.363106 -0.958023 0.050436 -0.461632 0.309323 -0.138721 0.071742 0.007672 0.108993 0.118300 0.140392 -0.411034 0.019072 0.099362 -0.196261 -0.042704 -0.352721 -0.128136 -0.062877 -0.097094 -0.166848 0.251407 0.559015 -0.277554 0.252695 0.418963 0.115626 -0.151699 0.089401 0.288206 0.341088 -0.318808 -0.421455 0.089284 -0.081505 0.098100 -0.008101 0.545019 -0.327707 0.153327 0.127303 0.214004 -0.050986 -0.243481 0.181416 -0.316193 0.186843 0.488426 0.136296 -0.390563 -0.076477 0.001391 -0.132062 
but 0.029522 -0.403559 0.582489 0.045762 0.076673 -0.377025 -0.109378 -0.018832 0.026479 0.111894 -0.161702 0.213048 -0.241221 -0.021618 -0.114974 -0.067908 -0.048696 0.448032 0.186978 -0.122333 -0.100110 0.073520 0.314497 0.018176 0.067609 0.027715 -0.199721 0.310007 0.084051 0.071582 -0.084156 -0.459194 -0.310798 0.406551 0.244790 0.072167 -0.071315 -0.142358 0.026897 0.065502 -0.085500 0.178841 0.017198 -0.299479 0.291402 0.044994 -0.130529 -0.272243 0.341201 -0.533724 0.244266 0.136136 0.065265 0.034059 -0.219032 -0.346759 -0.040930 -0.048217 -0.084358 -0.284377 -0.002734 0.105042 0.129191 0.175944 -0.120108 0.060857 0.359028 -0.118058 -0.219811 -0.269673 0.006057 0.127709 -0.149148 -0.330217 -0.153023 -0.250885 -0.400400 0.246316 0.194147 0.124620 0.075004 0.216327 0.142082 0.073106 -0.292514 0.118175 0.068558 -0.096500 0.222416 -0.139695 0.215033 -0.028234 0.179386 0.135275 -0.009209 -0.171540 0.045041 -0.013809 0.038647 -0.156123 0.453952 -0.166933 -0.205191 0.135108 0.050550 0.375500 -0.120296 -0.177390 -0.046966 0.290264 0.082296 0.157055 -0.118717 -0.281104 0.078410 0.164373 -0.020223 0.015115 0.118680 -0.104390 -0.144796 -0.069212 -0.031178 0.051518 0.040722 0.082071 0.150593 -0.030683 0.202554 0.123932 0.341577 0.605223 -0.421610 -0.085847 -0.053249 0.367414 0.094706 -0.359161 0.121612 -0.303687 -0.178197 0.233106 0.003358 0.413562 -0.160337 0.298753 0.271809 0.309633 -0.810525 0.041256 -0.390663 0.262164 -0.115101 0.057446 0.006369 0.086759 0.099712 0.117802 -0.348838 0.014052 0.082660 -0.166120 -0.032881 -0.301200 -0.106162 -0.049380 -0.080234 -0.141394 0.215830 0.474143 -0.237726 0.214381 0.357221 0.098850 -0.127321 0.075699 0.245371 0.287959 -0.269555 -0.359039 0.073345 -0.072199 0.083559 -0.009755 0.461417 -0.276536 0.126453 0.108799 0.182671 -0.043965 -0.206022 0.157379 -0.268591 0.155510 0.411131 0.116168 -0.329368 -0.068091 -0.001443 -0.112464 
also 0.039390 -0.544468 0.789988 0.060812 0.104515 -0.511873 -0.149035 -0.023614 0.038682 0.153242 -0.215832 0.289870 -0.325518 -0.030121 -0.159678 -0.090282 -0.067866 0.604845 0.256028 -0.172293 -0.134566 0.100507 0.423887 0.023456 0.092661 0.040421 -0.268314 0.415977 0.113494 0.095592 -0.110629 -0.617197 -0.420311 0.551008 0.329294 0.101455 -0.096402 -0.188904 0.038172 0.090340 -0.113091 0.237095 0.022374 -0.405435 0.394155 0.063344 -0.173287 -0.371264 0.461383 -0.720244 0.326905 0.179590 0.086138 0.041427 -0.294566 -0.465448 -0.060196 -0.059828 -0.113285 -0.382034 -0.008262 0.144940 0.176039 0.238416 -0.166443 0.079331 0.478776 -0.160483 -0.295735 -0.359928 0.006487 0.170581 -0.203910 -0.445232 -0.207928 -0.339363 -0.538122 0.333560 0.256880 0.166669 0.100541 0.288848 0.192789 0.097830 -0.396520 0.154167 0.088747 -0.132981 0.302804 -0.192522 0.288512 -0.036055 0.245258 0.182797 -0.015774 -0.230700 0.059912 -0.015869 0.047772 -0.212326 0.611741 -0.221984 -0.274845 0.180310 0.065848 0.505042 -0.159863 -0.241862 -0.067843 0.388951 0.113011 0.208598 -0.156303 -0.374913 0.107250 0.218449 -0.029969 0.018059 0.155291 -0.142465 -0.191379 -0.096023 -0.039127 0.069766 0.054526 0.109156 0.200183 -0.042832 0.276744 0.168191 0.465616 0.813568 -0.570977 -0.112543 -0.067761 0.495254 0.133587 -0.487230 0.164230 -0.410555 -0.244263 0.314120 -0.000247 0.559524 -0.215448 0.398754 0.369755 0.416509 -1.090058 0.057612 -0.527882 0.351712 -0.157847 0.077932 0.004837 0.122264 0.131592 0.161294 -0.473087 0.021579 0.113369 -0.223884 -0.044197 -0.407335 -0.141481 -0.068668 -0.106640 -0.195634 0.290304 0.636867 -0.320733 0.284995 0.480118 0.132917 -0.170256 0.101615 0.328930 0.389674 -0.362482 -0.477742 0.101307 -0.094462 0.114571 -0.012017 0.620958 -0.372248 0.171272 0.146066 0.243965 -0.053392 -0.279335 0.211600 -0.361795 0.214754 0.556002 0.154364 -0.447115 -0.092782 -0.002328 -0.149768 
2 0.028659 -0.382965 0.553359 0.041818 0.070669 -0.359194 -0.103261 -0.018929 0.030044 0.107824 -0.151863 0.203191 -0.227822 -0.023578 -0.108494 -0.066549 -0.048591 0.423830 0.179848 -0.119955 -0.094313 0.067516 0.295431 0.015040 0.063742 0.026556 -0.191172 0.289983 0.081380 0.066167 -0.080659 -0.435878 -0.294209 0.385525 0.229221 0.068284 -0.068321 -0.132633 0.023395 0.060189 -0.084049 0.165552 0.017654 -0.286544 0.278674 0.041992 -0.119581 -0.259575 0.320274 -0.506839 0.228204 0.130402 0.058362 0.028275 -0.209096 -0.326327 -0.040901 -0.044347 -0.076022 -0.266304 -0.004497 0.101267 0.123289 0.166641 -0.115805 0.053775 0.337417 -0.113947 -0.207909 -0.255046 0.006004 0.118941 -0.144395 -0.309664 -0.147998 -0.239402 -0.376261 0.232107 0.184898 0.114208 0.066803 0.203342 0.138036 0.070846 -0.279097 0.110311 0.060975 -0.094174 0.212925 -0.133402 0.202327 -0.027749 0.169956 0.128534 -0.008679 -0.163107 0.040841 -0.010920 0.033696 -0.147556 0.432490 -0.159931 -0.196290 0.129819 0.048569 0.352512 -0.112746 -0.166759 -0.043814 0.272708 0.081446 0.150938 -0.112476 -0.265360 0.070955 0.152641 -0.018743 0.013099 0.111416 -0.097200 -0.136859 -0.067118 -0.031091 0.050730 0.038664 0.077371 0.140208 -0.029398 0.193423 0.119381 0.326526 0.570925 -0.401885 -0.079796 -0.050301 0.350135 0.095046 -0.341241 0.117250 -0.290202 -0.173317 0.220578 -0.001585 0.393349 -0.152955 0.279101 0.259991 0.293795 -0.767325 0.040525 -0.368361 0.249554 -0.110972 0.053980 0.006526 0.088171 0.092166 0.114218 -0.330692 0.017067 0.080277 -0.158880 -0.033428 -0.284975 -0.103139 -0.047625 -0.077536 -0.137363 0.202622 0.447736 -0.222793 0.203038 0.335998 0.092369 -0.121997 0.072371 0.229652 0.274164 -0.251583 -0.337196 0.067214 -0.064782 0.079215 -0.008028 0.439719 -0.262173 0.124311 0.103594 0.170532 -0.040438 -0.197288 0.146491 -0.255430 0.151832 0.387214 0.111621 -0.315613 -0.061769 -0.000104 -0.106190 
kinase 0.040168 -0.505816 0.729894 0.053532 0.096656 -0.473646 -0.136583 -0.022063 0.038340 0.145355 -0.197499 0.268289 -0.302476 -0.025877 -0.145156 -0.088181 -0.060130 0.562568 0.238855 -0.157239 -0.124756 0.091082 0.392645 0.018748 0.085141 0.037659 -0.251928 0.383613 0.106924 0.089533 -0.104053 -0.572641 -0.388144 0.507954 0.302843 0.093799 -0.093994 -0.175029 0.034580 0.083504 -0.109642 0.217063 0.019523 -0.374867 0.366766 0.057698 -0.160457 -0.344887 0.423494 -0.666677 0.303252 0.166562 0.080716 0.040166 -0.276073 -0.430876 -0.053180 -0.059772 -0.101533 -0.353563 -0.003761 0.134221 0.159673 0.220496 -0.154348 0.074491 0.446319 -0.147943 -0.272194 -0.335325 0.007560 0.156583 -0.189827 -0.414149 -0.190038 -0.315982 -0.500468 0.307510 0.241537 0.152954 0.093043 0.271266 0.179705 0.093668 -0.365709 0.142500 0.082816 -0.121864 0.277590 -0.176216 0.270413 -0.037455 0.228282 0.167237 -0.015113 -0.215291 0.053940 -0.017209 0.047689 -0.198471 0.565478 -0.209416 -0.255355 0.165833 0.064895 0.467699 -0.150699 -0.223805 -0.060139 0.363498 0.105795 0.197813 -0.146625 -0.349767 0.094678 0.200549 -0.022955 0.019801 0.146182 -0.131712 -0.177339 -0.086278 -0.037770 0.069232 0.052071 0.102868 0.187474 -0.036248 0.254582 0.153043 0.429418 0.756317 -0.529764 -0.103842 -0.065372 0.456971 0.121305 -0.452100 0.150724 -0.383810 -0.226536 0.291249 0.002129 0.523193 -0.202596 0.367849 0.343956 0.387620 -1.014941 0.051349 -0.488597 0.326788 -0.148256 0.076190 0.009136 0.114985 0.125151 0.148742 -0.433599 0.024208 0.102681 -0.207855 -0.043576 -0.374441 -0.135637 -0.065738 -0.099576 -0.178492 0.270252 0.590987 -0.298259 0.264020 0.444906 0.120569 -0.156597 0.091342 0.300905 0.360424 -0.335515 -0.444328 0.090888 -0.087436 0.104608 -0.011334 0.578038 -0.346210 0.162478 0.132322 0.224710 -0.051790 -0.256597 0.193231 -0.334887 0.199122 0.512898 0.148936 -0.411165 -0.084338 0.000015 -0.141931 
interacts 0.036742 -0.490301 0.710772 0.055677 0.093696 -0.459621 -0.135472 -0.022072 0.037167 0.138486 -0.193526 0.262067 -0.294734 -0.026320 -0.143614 -0.085747 -0.059434 0.544469 0.229829 -0.153877 -0.120348 0.088406 0.384795 0.016972 0.081941 0.035228 -0.242586 0.374823 0.103948 0.085195 -0.104037 -0.559121 -0.380205 0.493747 0.300056 0.092134 -0.089361 -0.170965 0.032273 0.081108 -0.101682 0.214820 0.019097 -0.365116 0.357774 0.055369 -0.156318 -0.334569 0.414414 -0.652019 0.293051 0.164096 0.078067 0.041878 -0.265549 -0.422771 -0.055157 -0.055076 -0.099937 -0.345088 -0.005527 0.128420 0.156162 0.216344 -0.151357 0.073655 0.432515 -0.145595 -0.267240 -0.330244 0.005648 0.155584 -0.181891 -0.403682 -0.188638 -0.308858 -0.490042 0.299868 0.233066 0.153457 0.091733 0.264566 0.175452 0.089436 -0.361353 0.139763 0.077574 -0.118680 0.270871 -0.169193 0.259223 -0.035022 0.220341 0.166731 -0.011989 -0.207835 0.054175 -0.014770 0.042463 -0.193648 0.552113 -0.203263 -0.250007 0.162294 0.058409 0.456673 -0.144177 -0.219042 -0.059249 0.354834 0.103385 0.191197 -0.140937 -0.338689 0.097441 0.196904 -0.024978 0.017285 0.140384 -0.128611 -0.174036 -0.082144 -0.039483 0.062585 0.047836 0.098645 0.183529 -0.037761 0.250200 0.153836 0.419142 0.734223 -0.520298 -0.103000 -0.065587 0.443897 0.116790 -0.441877 0.146038 -0.375264 -0.217573 0.279616 0.000366 0.508423 -0.194533 0.362571 0.333699 0.376168 -0.985641 0.049707 -0.474030 0.316251 -0.141811 0.074040 0.006464 0.111774 0.118420 0.145276 -0.425062 0.022151 0.101590 -0.203109 -0.042902 -0.365023 -0.132955 -0.063038 -0.098607 -0.176282 0.260127 0.576522 -0.290358 0.261083 0.433253 0.118856 -0.152745 0.090291 0.297455 0.351843 -0.324112 -0.434179 0.089279 -0.086754 0.099422 -0.010411 0.564455 -0.337028 0.159325 0.135533 0.221195 -0.050936 -0.249196 0.189152 -0.324518 0.191014 0.504578 0.142147 -0.405370 -0.083840 -0.000973 -0.136884 
adhesion 0.031577 -0.414495 0.600258 0.046322 0.075410 -0.391177 -0.115754 -0.015978 0.032137 0.119116 -0.161436 0.217437 -0.249568 -0.020248 -0.118228 -0.068281 -0.052245 0.461608 0.195182 -0.130176 -0.100663 0.073936 0.322284 0.013635 0.071736 0.028303 -0.205630 0.315767 0.086425 0.073879 -0.083388 -0.470116 -0.321186 0.416743 0.249950 0.076337 -0.073219 -0.142655 0.027747 0.063904 -0.086509 0.177641 0.015946 -0.307328 0.300972 0.046581 -0.127398 -0.278865 0.348168 -0.549901 0.248532 0.137074 0.065700 0.035871 -0.227633 -0.354338 -0.042047 -0.046610 -0.083038 -0.287072 -0.003993 0.108466 0.134939 0.180139 -0.125842 0.058016 0.363150 -0.125248 -0.223909 -0.276321 0.008148 0.128695 -0.157230 -0.338649 -0.160229 -0.257975 -0.409376 0.253549 0.198415 0.123752 0.077809 0.218850 0.146353 0.075259 -0.298418 0.117347 0.063482 -0.101932 0.227042 -0.145982 0.222021 -0.030096 0.187088 0.138122 -0.010193 -0.174005 0.045086 -0.011822 0.036883 -0.159628 0.464231 -0.168880 -0.209453 0.135535 0.050582 0.381396 -0.122953 -0.179279 -0.050692 0.298232 0.084641 0.160419 -0.120531 -0.289655 0.081609 0.164884 -0.021572 0.015953 0.119495 -0.105625 -0.146401 -0.070197 -0.030597 0.053142 0.039101 0.083108 0.153915 -0.031132 0.208823 0.129731 0.355444 0.620280 -0.436620 -0.089004 -0.052302 0.374154 0.100657 -0.367915 0.124440 -0.313867 -0.185873 0.238125 -0.001009 0.426670 -0.162466 0.305178 0.281886 0.314731 -0.829755 0.043488 -0.399360 0.265156 -0.118258 0.063432 0.002550 0.093583 0.099820 0.119388 -0.358694 0.017518 0.087673 -0.167318 -0.038451 -0.310058 -0.112622 -0.054586 -0.080465 -0.147352 0.222177 0.483900 -0.245137 0.218734 0.361726 0.101301 -0.128907 0.077501 0.249323 0.295547 -0.274561 -0.366123 0.074023 -0.070802 0.084783 -0.007940 0.471524 -0.282559 0.134125 0.109141 0.183092 -0.040822 -0.210099 0.159891 -0.273585 0.163375 0.424310 0.121646 -0.336423 -0.066799 -0.002011 -0.117568 
between 0.039248 -0.559222 0.811310 0.063907 0.104758 -0.523247 -0.152731 -0.027416 0.039546 0.158663 -0.220301 0.299430 -0.334017 -0.030704 -0.162428 -0.096358 -0.067425 0.623055 0.263382 -0.177503 -0.135991 0.100879 0.436128 0.021248 0.094672 0.039754 -0.277825 0.429724 0.113904 0.098117 -0.117586 -0.637832 -0.429851 0.562424 0.336331 0.101577 -0.103323 -0.196795 0.035115 0.092270 -0.116288 0.245215 0.021450 -0.418482 0.404706 0.061018 -0.178294 -0.380746 0.470568 -0.744026 0.335051 0.187236 0.086047 0.045159 -0.302787 -0.480569 -0.061531 -0.067244 -0.115597 -0.393470 -0.007965 0.151558 0.181412 0.243916 -0.170268 0.079017 0.494943 -0.167517 -0.304432 -0.374380 0.009033 0.178166 -0.207968 -0.456562 -0.213624 -0.351510 -0.553754 0.341769 0.267593 0.173297 0.102832 0.299600 0.196281 0.105035 -0.405828 0.159537 0.092601 -0.134631 0.312615 -0.197333 0.299525 -0.038682 0.250565 0.187458 -0.012283 -0.234298 0.061376 -0.015075 0.050169 -0.219745 0.630890 -0.231531 -0.285951 0.186036 0.070731 0.517888 -0.168558 -0.247211 -0.067169 0.402243 0.117078 0.217564 -0.163410 -0.388224 0.107115 0.223975 -0.029025 0.019740 0.161736 -0.147028 -0.195726 -0.096796 -0.041650 0.073819 0.055695 0.113259 0.206736 -0.040804 0.283325 0.173007 0.479805 0.839936 -0.587658 -0.118434 -0.072059 0.507616 0.136282 -0.498948 0.166994 -0.428633 -0.252713 0.321648 0.003395 0.579552 -0.221226 0.413571 0.382524 0.428320 -1.127475 0.059078 -0.541640 0.359406 -0.160172 0.083320 0.005163 0.126940 0.137284 0.163800 -0.483533 0.020456 0.113341 -0.227794 -0.047401 -0.416544 -0.151637 -0.070854 -0.111626 -0.201585 0.298316 0.655254 -0.330504 0.299072 0.490573 0.136505 -0.174821 0.107035 0.338637 0.402147 -0.373581 -0.495267 0.099538 -0.097616 0.115797 -0.011791 0.643528 -0.385860 0.179417 0.150326 0.249858 -0.054598 -0.286008 0.216061 -0.372434 0.216725 0.570646 0.163775 -0.460954 -0.095181 0.001548 -0.156233 
tyrosine 0.032486 -0.427867 0.620819 0.045783 0.082921 -0.399572 -0.116432 -0.018279 0.031598 0.119292 -0.170089 0.224218 -0.252748 -0.021592 -0.122988 -0.071540 -0.049145 0.476739 0.199752 -0.135370 -0.103129 0.076996 0.334751 0.015116 0.075065 0.029456 -0.210761 0.324333 0.091183 0.073741 -0.084800 -0.485812 -0.326930 0.430574 0.259305 0.079324 -0.075014 -0.149493 0.029568 0.069905 -0.091168 0.186157 0.018217 -0.319747 0.311351 0.051054 -0.135112 -0.288935 0.357627 -0.565856 0.254884 0.142074 0.064392 0.035647 -0.230934 -0.364512 -0.043342 -0.052401 -0.088409 -0.295250 -0.005378 0.112766 0.137304 0.183601 -0.126898 0.061734 0.376451 -0.127181 -0.227914 -0.283398 0.006538 0.135663 -0.160606 -0.345204 -0.162636 -0.266939 -0.419818 0.262662 0.204476 0.130866 0.077332 0.228133 0.151493 0.080734 -0.310781 0.123414 0.067632 -0.100392 0.237608 -0.148973 0.226800 -0.028491 0.192725 0.141564 -0.009777 -0.181077 0.043151 -0.010144 0.040073 -0.165397 0.482124 -0.175926 -0.215222 0.142356 0.053232 0.391985 -0.124464 -0.189190 -0.053981 0.306328 0.089832 0.163148 -0.122518 -0.295506 0.083799 0.169899 -0.023070 0.016821 0.122157 -0.109847 -0.147398 -0.075965 -0.034452 0.055357 0.042083 0.089193 0.156670 -0.030022 0.215198 0.130838 0.363031 0.635583 -0.450063 -0.089295 -0.055294 0.387729 0.103229 -0.378999 0.125881 -0.325690 -0.192137 0.242555 -0.002059 0.442490 -0.167396 0.312952 0.290993 0.327172 -0.854343 0.044224 -0.414895 0.277358 -0.125701 0.063156 0.006251 0.092712 0.100946 0.124985 -0.368211 0.020177 0.089435 -0.172909 -0.037228 -0.316046 -0.113990 -0.056253 -0.082463 -0.150443 0.227021 0.498966 -0.249463 0.225841 0.373151 0.104320 -0.136415 0.081367 0.255846 0.303403 -0.283460 -0.377719 0.079076 -0.075840 0.086691 -0.009022 0.486044 -0.291875 0.135508 0.111403 0.192850 -0.042603 -0.217993 0.160995 -0.282994 0.168537 0.433551 0.125058 -0.349127 -0.070442 0.002321 -0.120340 
We 0.023456 -0.291874 0.421277 0.030633 0.054805 -0.270814 -0.078013 -0.014190 0.022847 0.081916 -0.113532 0.156234 -0.174515 -0.015339 -0.081137 -0.046593 -0.035055 0.321745 0.133554 -0.091225 -0.069158 0.054117 0.226597 0.011623 0.051489 0.021803 -0.141587 0.219679 0.062584 0.052268 -0.060471 -0.330352 -0.225049 0.292451 0.176418 0.051231 -0.050393 -0.099841 0.020913 0.049113 -0.062743 0.128442 0.009790 -0.213463 0.208364 0.032940 -0.092372 -0.194576 0.245628 -0.385274 0.171228 0.099403 0.044936 0.023977 -0.156618 -0.248295 -0.031760 -0.033938 -0.058011 -0.200182 -0.004715 0.079568 0.093732 0.125177 -0.088146 0.042621 0.253345 -0.084878 -0.157305 -0.192934 0.004672 0.093510 -0.106513 -0.234185 -0.110502 -0.182014 -0.289053 0.178377 0.136181 0.086940 0.049721 0.156074 0.103372 0.054923 -0.211294 0.081591 0.045818 -0.069325 0.157906 -0.099785 0.152946 -0.018557 0.130941 0.100572 -0.008979 -0.121015 0.032372 -0.008049 0.028713 -0.115593 0.327542 -0.121685 -0.144776 0.095359 0.037195 0.269394 -0.087975 -0.125150 -0.037207 0.207754 0.061300 0.114050 -0.083555 -0.201852 0.057443 0.112702 -0.014544 0.012254 0.082837 -0.077457 -0.101530 -0.052200 -0.023460 0.037522 0.027092 0.060493 0.106296 -0.021314 0.145395 0.088240 0.246737 0.435931 -0.305535 -0.060423 -0.036143 0.265128 0.068967 -0.258514 0.086997 -0.218375 -0.131733 0.164123 0.000340 0.300713 -0.112891 0.211712 0.196671 0.221915 -0.581270 0.027978 -0.277241 0.188923 -0.084007 0.041672 0.005963 0.066459 0.072341 0.084107 -0.252591 0.013108 0.060284 -0.116511 -0.025334 -0.217234 -0.074756 -0.035384 -0.059891 -0.100937 0.151184 0.336844 -0.170151 0.151095 0.252749 0.071768 -0.093288 0.052145 0.174110 0.207261 -0.189368 -0.255611 0.053046 -0.051408 0.058687 -0.003632 0.329757 -0.200562 0.090746 0.079889 0.129548 -0.029069 -0.148418 0.109456 -0.192634 0.112671 0.293563 0.085120 -0.237082 -0.045992 -0.002486 -0.083295 
activation 0.033029 -0.421775 0.611743 0.048007 0.078925 -0.392834 -0.117507 -0.018365 0.030020 0.115222 -0.163605 0.224250 -0.250282 -0.023782 -0.120084 -0.072091 -0.053187 0.470072 0.200327 -0.133858 -0.104840 0.078413 0.326850 0.017652 0.073042 0.031212 -0.207729 0.320103 0.086975 0.075588 -0.086787 -0.475499 -0.321796 0.424309 0.256006 0.077774 -0.077658 -0.144137 0.030453 0.068445 -0.088318 0.183791 0.017303 -0.314530 0.301297 0.045464 -0.134039 -0.287435 0.351956 -0.557789 0.249669 0.141578 0.067636 0.035251 -0.226983 -0.357850 -0.044028 -0.048640 -0.082431 -0.292169 -0.006953 0.110780 0.137203 0.183623 -0.125801 0.061682 0.372293 -0.122372 -0.225041 -0.278247 0.004951 0.131466 -0.157061 -0.344417 -0.161477 -0.265319 -0.416978 0.258070 0.199230 0.125329 0.074716 0.226185 0.147116 0.077975 -0.304922 0.120214 0.069183 -0.102619 0.233004 -0.147994 0.222969 -0.032496 0.190160 0.143422 -0.010884 -0.176536 0.045414 -0.012742 0.039705 -0.164285 0.471867 -0.173648 -0.210670 0.139503 0.051771 0.387850 -0.122943 -0.187944 -0.049758 0.299771 0.087074 0.162789 -0.122951 -0.294353 0.081075 0.169010 -0.020771 0.012320 0.120752 -0.107087 -0.148438 -0.074996 -0.034076 0.056606 0.044170 0.084343 0.155452 -0.034217 0.214379 0.132962 0.359370 0.627803 -0.441462 -0.089651 -0.055796 0.379925 0.099090 -0.376263 0.128967 -0.318749 -0.190312 0.239670 0.001885 0.431504 -0.169139 0.307176 0.284650 0.319444 -0.844504 0.042396 -0.407309 0.273493 -0.123991 0.061865 0.004323 0.090650 0.103511 0.122802 -0.364614 0.014650 0.083311 -0.173487 -0.034942 -0.313952 -0.114101 -0.053203 -0.084279 -0.150282 0.221684 0.490798 -0.245771 0.220905 0.370223 0.102075 -0.133987 0.077064 0.252388 0.303277 -0.280991 -0.373173 0.077204 -0.072038 0.085831 -0.010070 0.480119 -0.287024 0.134086 0.113684 0.190646 -0.044051 -0.213817 0.160860 -0.279320 0.164286 0.429366 0.124501 -0.344539 -0.069850 0.001751 -0.116238 
